svm_type c_svc
kernel_type rbf
gamma 0.5
nr_class 2
total_sv 1033
rho 0.916843
label 200 500
nr_sv 99 934
SV
1.937274877948208 1:5 2:0 3:0 4:0 5:40 6:0 7:0 8:0 
1.93751112965381 1:32 2:0 3:0 4:0 5:32 6:0 7:0 8:0 
2.146549889256902 1:1 2:0 3:0 4:0 5:3 6:0 7:0 8:0 
0.9221108356670794 1:14 2:0 3:0 4:0 5:1 6:0 7:0 8:0 
1.211568739832054 1:26 2:0 3:0 4:0 5:1 6:0 7:0 8:0 
1.757900542101869 1:24 2:0 3:0 4:0 5:8 6:0 7:0 8:0 
3.085319174511672 1:2 2:0 3:0 4:0 5:22 6:0 7:0 8:0 
1.872527569494169 1:14 2:0 3:0 4:0 5:13 6:0 7:0 8:0 
1.235119343067685 1:4 2:0 3:0 4:0 5:33 6:0 7:0 8:0 
5 1:14 2:0 3:0 4:0 5:13 6:0 7:0 8:0 
5 1:26 2:0 3:0 4:0 5:1 6:0 7:0 8:0 
1.469221639046633 1:12 2:0 3:0 4:0 5:2 6:0 7:0 8:0 
4.211667332084494 1:3 2:0 3:0 4:0 5:2 6:0 7:0 8:0 
5 1:3 2:0 3:0 4:0 5:2 6:0 7:0 8:0 
2.075345568963726 1:4 2:0 3:0 4:0 5:8 6:0 7:0 8:0 
1.880974649596904 1:32 2:0 3:0 4:0 5:11 6:0 7:0 8:0 
2.573814593017645 1:1 2:0 3:0 4:0 5:5 6:0 7:0 8:0 
4.13818733079011 1:2 2:0 3:0 4:0 5:33 6:0 7:0 8:0 
1.937499999999999 1:24 2:0 3:0 4:0 5:520 6:0 7:0 8:0 
2.718671527403493 1:5 2:0 3:0 4:0 5:32 6:0 7:0 8:0 
5 1:16 2:0 3:0 4:0 5:8 6:0 7:0 8:0 
1.953584795691597 1:1 2:0 3:0 4:0 5:6295 6:0 7:0 8:0 
1.557200157949562 1:14 2:0 3:0 4:0 5:5 6:0 7:0 8:0 
5 1:1 2:0 3:0 4:0 5:5 6:0 7:0 8:0 
3.940835011770364 1:3 2:0 3:0 4:0 5:4 6:0 7:0 8:0 
0.4460579348738322 1:6 2:0 3:0 4:0 5:2 6:0 7:0 8:0 
1.757720386650276 1:25 2:0 3:0 4:0 5:6 6:0 7:0 8:0 
0.8637855413684603 1:9 2:0 3:0 4:0 5:2 6:0 7:0 8:0 
0.9628749552991565 1:10 2:0 3:0 4:0 5:2 6:0 7:0 8:0 
1.979426988115062 1:8 2:0 3:0 4:0 5:8 6:0 7:0 8:0 
1.875594747295788 1:2 2:0 3:0 4:0 5:37 6:0 7:0 8:0 
1.90254823098697 1:12 2:0 3:0 4:0 5:10 6:0 7:0 8:0 
3.971322191543362 1:1 2:0 3:0 4:0 5:8 6:0 7:0 8:0 
1.858350667318944 1:4 2:0 3:0 4:0 5:35 6:0 7:0 8:0 
0.7143076919651808 1:23 2:0 3:0 4:0 5:0 6:0 7:0 8:0 
2.834731230058863 1:14 2:0 3:0 4:0 5:7 6:0 7:0 8:0 
5 1:1 2:0 3:0 4:0 5:8 6:0 7:0 8:0 
1.871152410904866 1:5 2:0 3:0 4:0 5:24 6:0 7:0 8:0 
2.658781665074629 1:31 2:0 3:0 4:0 5:2 6:0 7:0 8:0 
0.5267193811324009 1:28 2:0 3:0 4:0 5:0 6:0 7:0 8:0 
1.495015867511932 1:7 2:0 3:0 4:0 5:3 6:0 7:0 8:0 
0.2009640833877625 1:4 2:0 3:0 4:0 5:2 6:0 7:0 8:0 
1.875486871278305 1:32 2:0 3:0 4:0 5:272 6:0 7:0 8:0 
0.9999999879196335 1:21 2:0 3:0 4:0 5:0 6:0 7:0 8:0 
3.880370865069364 1:2 2:0 3:0 4:0 5:2 6:0 7:0 8:0 
0.1489416190873585 1:13 2:0 3:0 4:0 5:0 6:0 7:0 8:0 
5 1:14 2:0 3:0 4:0 5:1 6:0 7:0 8:0 
1.871441259821729 1:29 2:0 3:0 4:0 5:5 6:0 7:0 8:0 
0.3861820431992311 1:17 2:0 3:0 4:0 5:0 6:0 7:0 8:0 
0.8791868668870285 1:5 2:0 3:0 4:0 5:2 6:0 7:0 8:0 
0.6715065789294172 1:25 2:0 3:0 4:0 5:0 6:0 7:0 8:0 
3.588062287963933 1:32 2:0 3:0 4:0 5:0 6:0 7:0 8:0 
0.6138745563252004 1:22 2:0 3:0 4:0 5:0 6:0 7:0 8:0 
0.5139012891363911 1:6 2:0 3:0 4:0 5:0 6:0 7:0 8:0 
0.5920272473697175 1:7 2:0 3:0 4:0 5:0 6:0 7:0 8:0 
0.9284886555201823 1:24 2:0 3:0 4:0 5:0 6:0 7:0 8:0 
5 1:31 2:0 3:0 4:0 5:0 6:0 7:0 8:0 
0.9962079507819281 1:8 2:0 3:0 4:0 5:0 6:0 7:0 8:0 
0.5815438342851299 1:1 2:0 3:0 4:0 5:1 6:0 7:0 8:0 
1.065145391045813 1:10 2:0 3:0 4:0 5:0 6:0 7:0 8:0 
1.625844558235653 1:5 2:0 3:0 4:0 5:5 6:0 7:0 8:0 
4.808274355147559 1:8 2:0 3:0 4:0 5:0 6:0 7:0 8:0 
0.1586562074067645 1:15 2:0 3:0 4:0 5:0 6:0 7:0 8:0 
5 1:32 2:0 3:0 4:0 5:0 6:0 7:0 8:0 
1.9361831798456 1:8 2:0 3:0 4:0 5:32 6:0 7:0 8:0 
1.322792443235601 1:16 2:0 3:0 4:0 5:0 6:0 7:0 8:0 
5 1:13 2:0 3:0 4:0 5:0 6:0 7:0 8:0 
5 1:25 2:0 3:0 4:0 5:0 6:0 7:0 8:0 
0.3012824133279397 1:11 2:0 3:0 4:0 5:0 6:0 7:0 8:0 
0.9939925053078937 1:18 2:0 3:0 4:0 5:0 6:0 7:0 8:0 
0.8693637354714979 1:14 2:0 3:0 4:0 5:0 6:0 7:0 8:0 
2.541494125417341 1:12 2:0 3:0 4:0 5:0 6:0 7:0 8:0 
0.2960038071460087 1:8 2:0 3:0 4:0 5:1 6:0 7:0 8:0 
1.041507590412947 1:3 2:0 3:0 4:0 5:0 6:0 7:0 8:0 
0.6884235539857682 1:30 2:0 3:0 4:0 5:0 6:0 7:0 8:0 
5 1:3 2:0 3:0 4:0 5:0 6:0 7:0 8:0 
5 1:7 2:0 3:0 4:0 5:0 6:0 7:0 8:0 
5 1:17 2:0 3:0 4:0 5:0 6:0 7:0 8:0 
0.2836608759913043 1:30 2:0 3:0 4:0 5:1 6:0 7:0 8:0 
5 1:6 2:0 3:0 4:0 5:0 6:0 7:0 8:0 
3.55794222007458 1:12 2:0 3:0 4:0 5:0 6:0 7:0 8:0 
0.2524652397872546 1:4 2:0 3:0 4:0 5:0 6:0 7:0 8:0 
4.541366107121933 1:2 2:0 3:0 4:0 5:0 6:0 7:0 8:0 
2.294264169052281 1:1 2:0 3:0 4:0 5:0 6:0 7:0 8:0 
0.6214735514600536 1:20 2:0 3:0 4:0 5:0 6:0 7:0 8:0 
5 1:25 2:0 3:0 4:0 5:0 6:0 7:0 8:0 
0.2575043063544674 1:7 2:0 3:0 4:0 5:1 6:0 7:0 8:0 
4.941889744794707 1:16 2:0 3:0 4:0 5:0 6:0 7:0 8:0 
0.920505255602815 1:29 2:0 3:0 4:0 5:0 6:0 7:0 8:0 
0.7186926080156741 1:19 2:0 3:0 4:0 5:0 6:0 7:0 8:0 
5 1:6 2:0 3:0 4:0 5:0 6:0 7:0 8:0 
5 1:1 2:0 3:0 4:0 5:0 6:0 7:0 8:0 
5 1:1 2:0 3:0 4:0 5:0 6:0 7:0 8:0 
1.771620738775881 1:1 2:0 3:0 4:0 5:2 6:0 7:0 8:0 
0.9748979113253486 1:5 2:0 3:0 4:0 5:0 6:0 7:0 8:0 
0.2919832856007768 1:9 2:0 3:0 4:0 5:0 6:0 7:0 8:0 
5 1:10 2:0 3:0 4:0 5:0 6:0 7:0 8:0 
0.9612624757401953 1:27 2:0 3:0 4:0 5:0 6:0 7:0 8:0 
5 1:1 2:0 3:0 4:0 5:0 6:0 7:0 8:0 
-0.0625 1:0 2:0 3:5312 4:4.2950328e+09 5:320 6:320 7:0 8:0 
-0.0625 1:15168 2:0 3:15 4:0 5:200 6:200 7:0 8:0 
-0.0625 1:396 2:0 3:1 4:5 5:0 6:0 7:0 8:0 
-0.0625 1:27432 2:0 3:52 4:5.1540394e+10 5:0 6:0 7:0 8:0 
-0.0625 1:12904 2:0 3:30 4:3.006523e+10 5:64 6:64 7:0 8:0 
-0.06249073997338672 1:0 2:0 3:0 4:0 5:32 6:32 7:0 8:0 
-0.0625 1:590 2:0 3:0 4:0 5:20 6:0 7:0 8:0 
-0.0625 1:72 2:0 3:22 4:6.8720528e+10 5:0 6:0 7:0 8:0 
-0.06249858066145153 1:0 2:0 3:0 4:22 5:0 6:0 7:0 8:0 
-0.0625 1:13464 2:0 3:964 4:9.4490722e+10 5:0 6:0 7:0 8:0 
-0.0625 1:3429 2:0 3:0 4:0 5:0 6:0 7:0 8:0 
-0.0625 1:0 2:0 3:9 4:8.5900657e+09 5:648 6:648 7:0 8:0 
-0.06250000000001588 1:0 2:0 3:0 4:108 5:0 6:0 7:0 8:0 
-0.06246324364595374 1:0 2:0 3:0 4:52 5:0 6:0 7:0 8:0 
-0.06250000000001588 1:224 2:0 3:0 4:0 5:48 6:0 7:0 8:0 
-0.06250000000001588 1:3992 2:0 3:0 4:0 5:103 6:0 7:0 8:0 
-0.06250000000001588 1:25792 2:0 3:336 4:6.8720525e+10 5:392 6:392 7:0 8:0 
-0.06250000148947948 1:14592 2:0 3:61 4:3.4360263e+10 5:536 6:536 7:0 8:0 
-0.06250000148947948 1:1814 2:0 3:90 4:3.006523e+10 5:0 6:0 7:0 8:0 
-0.06250000148947948 1:0 2:0 3:4 4:2 5:32 6:32 7:0 8:0 
-0.06250000148947948 1:14272 2:0 3:28 4:4.7245361e+10 5:65520 6:65520 7:0 8:0 
-0.06539967611267006 1:0 2:0 3:0 4:0 5:40 6:0 7:0 8:0 
-0.06250000148947948 1:80 2:0 3:99 4:4.2950984e+09 5:1936 6:1936 7:0 8:0 
-5 1:8 2:0 3:0 4:0 5:0 6:0 7:0 8:0 
-0.06247894650192826 1:0 2:0 3:0 4:0 5:4 6:4 7:0 8:0 
-0.06250000148947948 1:1686 2:0 3:0 4:0 5:362 6:0 7:0 8:0 
-0.06250000148947948 1:2521 2:0 3:0 4:1.7180131e+10 5:14 6:14 7:0 8:0 
-0.06249999999999961 1:51 2:0 3:0 4:0 5:1 6:0 7:0 8:0 
-0.06250000148947948 1:54008 2:0 3:0 4:0 5:0 6:0 7:0 8:0 
-0.06249999999999922 1:231 2:0 3:0 4:0 5:0 6:0 7:0 8:0 
-0.06251071637693095 1:206 2:0 3:19 4:0 5:74 6:74 7:0 8:0 
-0.06251071637693095 1:71 2:0 3:0 4:0 5:208 6:0 7:0 8:0 
-0.06251071637693095 1:3448 2:0 3:3 4:5.1540394e+10 5:1616 6:1616 7:0 8:0 
-0.06251071637693095 1:17104 2:0 3:19 4:6.8720525e+10 5:24 6:24 7:0 8:0 
-0.06320420325570059 1:37 2:0 3:0 4:0 5:8 6:0 7:0 8:0 
-0.0625117566817866 1:280 2:0 3:0 4:0 5:0 6:0 7:0 8:0 
-0.0625117566817866 1:7816 2:0 3:12 4:9.0195689e+10 5:40 6:40 7:0 8:0 
-0.0625117566817866 1:0 2:0 3:11 4:0 5:8 6:8 7:0 8:0 
-0.0625117566817866 1:2680 2:0 3:0 4:0 5:7 6:0 7:0 8:0 
-5 1:32 2:0 3:0 4:0 5:0 6:0 7:0 8:0 
-0.05589127907571395 1:83 2:0 3:0 4:0 5:0 6:0 7:0 8:0 
-0.0625117566817866 1:807 2:0 3:0 4:3.4360328e+10 5:0 6:0 7:0 8:0 
-0.0625117566817866 1:0 2:0 3:0 4:52 5:32 6:32 7:0 8:0 
-0.05549462931794147 1:2649 2:0 3:0 4:0 5:0 6:0 7:0 8:0 
-0.0625117566817866 1:8232 2:0 3:0 4:4.2950329e+09 5:56496 6:56496 7:0 8:0 
-0.0625117566817866 1:1187 2:0 3:0 4:0 5:4 6:0 7:0 8:0 
-0.06257284992700884 1:314 2:0 3:0 4:0 5:96 6:0 7:0 8:0 
-0.06266401736275351 1:734 2:0 3:6 4:131074 5:1 6:1 7:0 8:0 
-0.06275644492285481 1:6752 2:0 3:12 4:6.013046e+10 5:0 6:0 7:0 8:0 
-0.06275644492285481 1:31136 2:0 3:164 4:5.5835427e+10 5:0 6:0 7:0 8:0 
-0.06277518172576702 1:648 2:0 3:0 4:0 5:736 6:0 7:0 8:0 
-0.06277518172576702 1:8632 2:0 3:42 4:3.8655296e+10 5:152 6:152 7:0 8:0 
-0.06277518172576702 1:696 2:0 3:2 4:1 5:96 6:96 7:0 8:0 
-0.06277518172576702 1:1300 2:0 3:0 4:0 5:176 6:0 7:0 8:0 
-0.06285105662055218 1:13672 2:0 3:66 4:3.4360263e+10 5:88 6:88 7:0 8:0 
-0.06285105662055218 1:3480 2:0 3:632 4:1.2885098e+10 5:88 6:88 7:0 8:0 
-0.06285105662055218 1:7328 2:0 3:0 4:0 5:512 6:0 7:0 8:0 
-0.06285105662055218 1:36248 2:0 3:0 4:0 5:0 6:0 7:0 8:0 
-0.06663534677727873 1:36480 2:0 3:645 4:8.5900657e+10 5:240 6:240 7:0 8:0 
-0.0630495769483348 1:1967 2:0 3:0 4:0 5:0 6:0 7:0 8:0 
-0.06311630994681366 1:1959 2:0 3:0 4:0 5:288 6:0 7:0 8:0 
-0.06311630994681366 1:30592 2:0 3:73 4:3.4360263e+10 5:0 6:0 7:0 8:0 
-0.06315003318788998 1:0 2:0 3:8 4:1.7180132e+10 5:0 6:0 7:0 8:0 
-0.06315003318788998 1:947 2:0 3:0 4:0 5:144 6:0 7:0 8:0 
-0.06315003318788998 1:15 2:0 3:0 4:4.2950984e+09 5:0 6:0 7:0 8:0 
-0.06315003318788998 1:42352 2:0 3:550 4:3.4360263e+10 5:264 6:264 7:0 8:0 
-0.06315003318788998 1:588 2:0 3:0 4:0 5:0 6:0 7:0 8:0 
-0.06315003318788998 1:472 2:0 3:51 4:2.5770197e+10 5:0 6:0 7:0 8:0 
-0.06315003318788998 1:18408 2:0 3:79 4:7.7310591e+10 5:80 6:80 7:0 8:0 
-0.06315003318788998 1:512 2:0 3:7 4:4.2950328e+09 5:96 6:96 7:0 8:0 
-0.06320412538600695 1:64160 2:0 3:0 4:0 5:584 6:0 7:0 8:0 
-0.06320412791831154 1:30216 2:0 3:171 4:7.3015558e+10 5:224 6:224 7:0 8:0 
-0.06320413047845796 1:13720 2:0 3:907 4:1.7180131e+10 5:1056 6:1056 7:0 8:0 
-0.06320413047845796 1:365 2:0 3:0 4:0 5:104 6:0 7:0 8:0 
-0.0632041330668805 1:0 2:0 3:6 4:0 5:152 6:152 7:0 8:0 
-0.0632041330668805 1:64728 2:0 3:48 4:4.2950328e+09 5:0 6:0 7:0 8:0 
-0.0632041330668805 1:24328 2:0 3:6 4:6.013046e+10 5:24 6:24 7:0 8:0 
-0.06249970047408693 1:118 2:0 3:6 4:0 5:0 6:0 7:0 8:0 
-0.0632041330668805 1:40224 2:0 3:45 4:4.2950328e+10 5:0 6:0 7:0 8:0 
-0.06323190822097913 1:35496 2:0 3:21 4:4.7245361e+10 5:360 6:360 7:0 8:0 
-0.06249999924471428 1:0 2:0 3:0 4:38 5:0 6:0 7:0 8:0 
-0.06323190822097913 1:0 2:0 3:117 4:4.2950328e+09 5:8 6:8 7:0 8:0 
-0.06414011415001802 1:16232 2:0 3:1059 4:3.8655296e+10 5:312 6:312 7:0 8:0 
-0.06249858081042881 1:82 2:0 3:6 4:0 5:0 6:0 7:0 8:0 
-0.06414011415001802 1:40528 2:0 3:205 4:2.5770197e+10 5:0 6:0 7:0 8:0 
-0.06414011415001802 1:3006 2:0 3:9 4:1 5:0 6:0 7:0 8:0 
-0.06414011415001802 1:0 2:0 3:0 4:0 5:312 6:0 7:0 8:0 
-0.06488884297596309 1:3693 2:0 3:0 4:8.5900657e+09 5:0 6:0 7:0 8:0 
-0.06502084449902296 1:3969 2:0 3:0 4:0 5:6 6:6 7:0 8:0 
-0.06204881643420007 1:0 2:0 3:3 4:1 5:40 6:40 7:0 8:0 
-0.06502084449902296 1:2504 2:0 3:270 4:0 5:328 6:328 7:0 8:0 
-5 1:31 2:0 3:0 4:0 5:0 6:0 7:0 8:0 
-0.06502084449902296 1:4095 2:0 3:0 4:4.2950328e+09 5:0 6:0 7:0 8:0 
-0.06502084449902296 1:54128 2:0 3:1167 4:4.7245361e+10 5:72 6:72 7:0 8:0 
-0.06538573574583539 1:13888 2:0 3:58 4:4.7245361e+10 5:40 6:40 7:0 8:0 
-0.06567715107295313 1:3848 2:0 3:107 4:33 5:632 6:632 7:0 8:0 
-0.06577066424258471 1:144 2:0 3:0 4:0 5:408 6:0 7:0 8:0 
-0.06577066424258471 1:682 2:0 3:0 4:0 5:24 6:0 7:0 8:0 
-0.06249999924442801 1:163 2:0 3:0 4:0 5:1 6:0 7:0 8:0 
-0.06577866150202666 1:0 2:0 3:1 4:0 5:56 6:56 7:0 8:0 
-0.06579288503272979 1:0 2:0 3:7 4:1.5e+11 5:8 6:8 7:0 8:0 
-0.06656724156048865 1:2904 2:0 3:14 4:3.4360263e+10 5:0 6:0 7:0 8:0 
-0.06700012296321689 1:1976 2:0 3:0 4:0 5:40 6:0 7:0 8:0 
-0.06704297846876017 1:2256 2:0 3:22 4:7.3015558e+10 5:88 6:88 7:0 8:0 
-0.062498580902004 1:3962 2:0 3:0 4:0 5:14 6:14 7:0 8:0 
-0.06704297848494811 1:6616 2:0 3:1 4:7.7310591e+10 5:0 6:0 7:0 8:0 
-0.06704297850260538 1:8208 2:0 3:19 4:3.8655295e+10 5:0 6:0 7:0 8:0 
-0.06704297850260538 1:51432 2:0 3:3966 4:7.3015558e+10 5:0 6:0 7:0 8:0 
-0.06704297850297047 1:4872 2:0 3:0 4:0 5:104 6:0 7:0 8:0 
-0.06704297850297047 1:0 2:0 3:52 4:2.23e+11 5:0 6:0 7:0 8:0 
-0.06704297850297047 1:64760 2:0 3:199 4:3.8655296e+10 5:0 6:0 7:0 8:0 
-0.06704297850297047 1:928 2:0 3:1177 4:0 5:8088 6:8088 7:0 8:0 
-0.06717485697077119 1:4480 2:0 3:64 4:5.1540394e+10 5:152 6:152 7:0 8:0 
-0.06759843550427258 1:1942 2:0 3:0 4:0 5:65 6:0 7:0 8:0 
-0.06759843550427258 1:36400 2:0 3:0 4:0 5:616 6:0 7:0 8:0 
-0.06759843550427258 1:52648 2:0 3:0 4:5.5835427e+10 5:0 6:0 7:0 8:0 
-0.06759843550427258 1:1485 2:0 3:0 4:0 5:35 6:0 7:0 8:0 
-0.06942989344513451 1:196 2:0 3:0 4:0 5:0 6:0 7:0 8:0 
-0.07012536285759513 1:23728 2:0 3:0 4:0 5:0 6:0 7:0 8:0 
-0.07055717374378018 1:54416 2:0 3:54 4:3.006523e+10 5:8 6:8 7:0 8:0 
-0.071136035046721 1:1712 2:0 3:78 4:8.5900657e+09 5:32 6:32 7:0 8:0 
-0.07140171658694539 1:23912 2:0 3:119 4:6.4425492e+10 5:0 6:0 7:0 8:0 
-0.07181000980873431 1:664 2:0 3:1 4:3.4360263e+10 5:0 6:0 7:0 8:0 
-0.07181000980873431 1:6064 2:0 3:21 4:2.5770197e+10 5:0 6:0 7:0 8:0 
-0.06249999924480282 1:352 2:0 3:6 4:1 5:0 6:0 7:0 8:0 
-0.06202965016566336 1:0 2:0 3:0 4:0 5:17 6:0 7:0 8:0 
-0.0722829285470753 1:48184 2:0 3:45 4:3.8655296e+10 5:72 6:72 7:0 8:0 
-0.07273919998529771 1:28576 2:0 3:130 4:1.7180131e+10 5:0 6:0 7:0 8:0 
-0.06249999999999939 1:0 2:0 3:14 4:0 5:40 6:40 7:0 8:0 
-0.07273919998529771 1:700 2:0 3:0 4:0 5:47 6:0 7:0 8:0 
-0.07273919998529771 1:969 2:0 3:0 4:0 5:10 6:0 7:0 8:0 
-0.07273919998529771 1:60544 2:0 3:0 4:4.2950328e+10 5:8 6:8 7:0 8:0 
-0.07316324317130024 1:34112 2:0 3:37 4:5.5835427e+10 5:78 6:78 7:0 8:0 
-0.07341568498649403 1:8 2:0 3:12 4:0 5:1184 6:1184 7:0 8:0 
-0.07363539642638195 1:1648 2:0 3:0 4:0 5:488 6:0 7:0 8:0 
-0.07363539642638195 1:1819 2:0 3:0 4:0 5:184 6:0 7:0 8:0 
-0.07397046600012508 1:14440 2:0 3:86 4:6.4425492e+10 5:8 6:8 7:0 8:0 
-0.07397046600012508 1:28280 2:0 3:0 4:0 5:1240 6:0 7:0 8:0 
-0.07397046600012508 1:1336 2:0 3:253 4:3.8655296e+10 5:24776 6:24776 7:0 8:0 
-0.07397046600012508 1:48160 2:0 3:23 4:6.013046e+10 5:56 6:56 7:0 8:0 
-0.07400095178650218 1:40 2:0 3:228 4:6 5:4712 6:4712 7:0 8:0 
-0.07400095178650218 1:38512 2:0 3:17 4:5.1540394e+10 5:176 6:176 7:0 8:0 
-0.06249858041514478 1:0 2:0 3:0 4:0 5:134 6:0 7:0 8:0 
-0.07400340592121468 1:432 2:0 3:26 4:0 5:72 6:72 7:0 8:0 
-0.07400340592121468 1:3448 2:0 3:27 4:0 5:272 6:272 7:0 8:0 
-0.07400340592121468 1:1040 2:0 3:0 4:0 5:22 6:0 7:0 8:0 
-0.07400340592121468 1:6560 2:0 3:71 4:3.006523e+10 5:16 6:16 7:0 8:0 
-0.07456077561658403 1:27776 2:0 3:36 4:4.7245361e+10 5:0 6:0 7:0 8:0 
-0.07456077561658403 1:1231 2:0 3:22 4:0 5:5 6:5 7:0 8:0 
-0.07498723188240952 1:0 2:0 3:7 4:0 5:112 6:112 7:0 8:0 
-0.07559599948050927 1:6112 2:0 3:0 4:0 5:0 6:0 7:0 8:0 
-0.07564454924717151 1:24024 2:0 3:60 4:4.7245361e+10 5:2464 6:2464 7:0 8:0 
-0.07564454924717151 1:170 2:0 3:0 4:0 5:0 6:0 7:0 8:0 
-0.07571839109447143 1:0 2:0 3:23 4:0 5:608 6:608 7:0 8:0 
-0.07571839109447143 1:103 2:0 3:14 4:0 5:0 6:0 7:0 8:0 
-0.07571839109447143 1:5016 2:0 3:10 4:3.4360263e+10 5:640 6:640 7:0 8:0 
-0.3544419370585807 1:1 2:0 3:0 4:0 5:6293 6:0 7:0 8:0 
-0.06249189772255603 1:0 2:0 3:0 4:33 5:0 6:0 7:0 8:0 
-0.07571839109447143 1:208 2:0 3:1 4:0 5:0 6:0 7:0 8:0 
-0.06249042730515714 1:553 2:0 3:1 4:4 5:1 6:1 7:0 8:0 
-0.07627395327266628 1:8 2:0 3:9 4:0 5:80 6:80 7:0 8:0 
-0.07627395327266628 1:552 2:0 3:0 4:0 5:0 6:0 7:0 8:0 
-5 1:1 2:0 3:0 4:0 5:0 6:0 7:0 8:0 
-0.07627395327266628 1:16592 2:0 3:47 4:4.2950328e+10 5:0 6:0 7:0 8:0 
-0.07627395327266628 1:498 2:0 3:0 4:4 5:0 6:0 7:0 8:0 
-0.07657852964982542 1:460 2:0 3:0 4:0 5:0 6:0 7:0 8:0 
-0.07667933195152798 1:5232 2:0 3:12 4:2.1475164e+10 5:32 6:32 7:0 8:0 
-0.07667933195152798 1:4264 2:0 3:63 4:2.1475164e+10 5:0 6:0 7:0 8:0 
-0.07713714431065299 1:1312 2:0 3:0 4:0 5:0 6:0 7:0 8:0 
-0.0772741232510194 1:4136 2:0 3:781 4:5.5835427e+10 5:6136 6:6136 7:0 8:0 
-5 1:3 2:0 3:0 4:0 5:2 6:0 7:0 8:0 
-0.06209310722485539 1:0 2:0 3:0 4:10 5:0 6:0 7:0 8:0 
-0.07729013683536101 1:288 2:0 3:0 4:0 5:16 6:16 7:0 8:0 
-0.07757137065475772 1:408 2:0 3:0 4:0 5:85 6:0 7:0 8:0 
-0.07766893499995944 1:170 2:0 3:0 4:0 5:28 6:0 7:0 8:0 
-0.08499716954807585 1:4952 2:0 3:175 4:4.7245361e+10 5:8 6:8 7:0 8:0 
-0.07766893499995942 1:0 2:0 3:0 4:65537 5:1280 6:1280 7:0 8:0 
-0.07766893499995947 1:4234 2:0 3:0 4:0 5:1 6:1 7:0 8:0 
-0.06249614745604737 1:64 2:0 3:0 4:0 5:8 6:0 7:0 8:0 
-0.07831874026599733 1:21408 2:0 3:245 4:6.4425492e+10 5:5240 6:5240 7:0 8:0 
-0.07831874026599733 1:7552 2:0 3:735 4:3.8655295e+10 5:1840 6:1840 7:0 8:0 
-0.07831874026599733 1:22128 2:0 3:0 4:0 5:448 6:0 7:0 8:0 
-0.06240560214343693 1:25 2:0 3:0 4:0 5:32 6:0 7:0 8:0 
-0.07831874026599733 1:49296 2:0 3:37 4:4.7245361e+10 5:8 6:8 7:0 8:0 
-0.07854459016731236 1:7352 2:0 3:2 4:6.4425492e+10 5:56 6:56 7:0 8:0 
-0.07854459016731236 1:187 2:0 3:0 4:0 5:104 6:0 7:0 8:0 
-0.07854459016731236 1:64736 2:0 3:124 4:1.37e+11 5:0 6:0 7:0 8:0 
-0.06249606577164168 1:295 2:0 3:0 4:1 5:0 6:0 7:0 8:0 
-0.07854459016731236 1:116 2:0 3:18 4:2 5:5 6:5 7:0 8:0 
-0.07854459016731236 1:73 2:0 3:0 4:0 5:1423 6:0 7:0 8:0 
-0.07854459016731236 1:0 2:0 3:8 4:2.45e+11 5:0 6:0 7:0 8:0 
-0.07854459016731236 1:36248 2:0 3:0 4:0 5:1768 6:0 7:0 8:0 
-0.07854459016731236 1:18792 2:0 3:25 4:4.7245361e+10 5:8 6:8 7:0 8:0 
-0.07886213893582389 1:3104 2:0 3:70 4:0 5:3 6:3 7:0 8:0 
-0.07886213893582389 1:15232 2:0 3:12 4:0 5:24 6:24 7:0 8:0 
-0.07886213893582389 1:62408 2:0 3:25 4:3.8655296e+10 5:65528 6:65528 7:0 8:0 
-0.07886213893582389 1:0 2:0 3:0 4:0 5:10 6:8 7:11 8:0 
-0.06248825871217906 1:40 2:0 3:0 4:0 5:11 6:0 7:0 8:0 
-0.07946520745867286 1:609 2:0 3:0 4:0 5:0 6:0 7:0 8:0 
-0.07946520745867286 1:2856 2:0 3:27 4:1.03e+11 5:0 6:0 7:0 8:0 
-0.07954656126664783 1:728 2:0 3:0 4:0 5:0 6:0 7:0 8:0 
-0.07954656126664783 1:2296 2:0 3:1 4:7.7310591e+10 5:0 6:0 7:0 8:0 
-0.07954656126664783 1:52896 2:0 3:138 4:6.4425492e+10 5:216 6:216 7:0 8:0 
-0.07954656126664783 1:3736 2:0 3:29 4:4.2950328e+10 5:0 6:0 7:0 8:0 
-0.07956416968193303 1:64728 2:0 3:686 4:7.7310591e+10 5:8 6:8 7:0 8:0 
-0.07990318412565545 1:0 2:0 3:0 4:0 5:59 6:47 7:54 8:0 
-0.07990318412565545 1:64704 2:0 3:0 4:0 5:32 6:0 7:0 8:0 
-0.06808117628682775 1:91 2:0 3:0 4:0 5:0 6:0 7:0 8:0 
-0.08060590705455295 1:192 2:0 3:6 4:0 5:536 6:536 7:0 8:0 
-0.0812863285275009 1:0 2:0 3:426 4:3.8655295e+10 5:16 6:16 7:0 8:0 
-0.0620951791707765 1:2693 2:0 3:0 4:0 5:0 6:0 7:0 8:0 
-0.08140795927016409 1:531 2:0 3:96 4:4.2950328e+09 5:5 6:5 7:0 8:0 
-0.08140795927016409 1:0 2:0 3:0 4:0 5:64 6:0 7:0 8:0 
-0.08140795927016409 1:9264 2:0 3:697 4:9.0195691e+10 5:8 6:8 7:0 8:0 
-0.08140795927016409 1:4280 2:0 3:1344 4:5.5835427e+10 5:352 6:352 7:0 8:0 
-0.08140795927016409 1:80 2:0 3:41 4:8.1605625e+10 5:0 6:0 7:0 8:0 
-0.08140795927016409 1:15584 2:0 3:0 4:0 5:40 6:0 7:0 8:0 
-0.08140795927016409 1:4840 2:0 3:2492 4:1.7180131e+10 5:14688 6:14688 7:0 8:0 
-0.08140795927016409 1:49832 2:0 3:0 4:0 5:0 6:0 7:0 8:0 
-0.08261622963984683 1:2008 2:0 3:0 4:0 5:32 6:0 7:0 8:0 
-0.08300330367236652 1:14216 2:0 3:42 4:4.7245427e+10 5:136 6:136 7:0 8:0 
-0.08300330367236652 1:8816 2:0 3:0 4:0 5:59328 6:0 7:0 8:0 
-0.08300330367236652 1:22920 2:0 3:3015 4:7.3015558e+10 5:2560 6:2560 7:0 8:0 
-0.08300330367236652 1:1240 2:0 3:29 4:3.4360263e+10 5:8 6:8 7:0 8:0 
-0.08300330367236652 1:48224 2:0 3:707 4:1 5:224 6:224 7:0 8:0 
-0.06183329186210584 1:0 2:0 3:12 4:0 5:48 6:48 7:0 8:0 
-0.08300330367236652 1:0 2:0 3:6 4:49 5:24 6:24 7:0 8:0 
-0.06249999924486349 1:151 2:0 3:6 4:3 5:0 6:0 7:0 8:0 
-0.08300330367236652 1:64512 2:0 3:184 4:3.8655623e+10 5:16 6:16 7:0 8:0 
-0.08300330367236652 1:64808 2:0 3:168 4:4.7245361e+10 5:48 6:48 7:0 8:0 
-0.08341058047858974 1:4095 2:0 3:0 4:4.7245361e+10 5:0 6:0 7:0 8:0 
-5 1:1 2:0 3:0 4:0 5:0 6:0 7:0 8:0 
-0.08355751521091742 1:14904 2:0 3:10 4:5.5835427e+10 5:112 6:112 7:0 8:0 
-0.08355751521091742 1:54968 2:0 3:138 4:6.013046e+10 5:8 6:8 7:0 8:0 
-0.08355751521091742 1:0 2:0 3:0 4:0 5:1046 6:1046 7:0 8:0 
-0.08355751521091742 1:1895 2:0 3:0 4:0 5:100 6:0 7:0 8:0 
-0.08451726097029966 1:34400 2:0 3:0 4:0 5:800 6:0 7:0 8:0 
-0.06249412961441236 1:0 2:0 3:18 4:0 5:0 6:0 7:0 8:0 
-0.06249410184546161 1:251 2:0 3:0 4:0 5:0 6:0 7:0 8:0 
-0.08451726097029966 1:56 2:0 3:18 4:0 5:328 6:328 7:0 8:0 
-0.08451726097029966 1:976 2:0 3:0 4:0 5:440 6:0 7:0 8:0 
-0.06248204548048836 1:0 2:0 3:27 4:0 5:0 6:0 7:0 8:0 
-0.08451726097029966 1:64824 2:0 3:909 4:6.4425492e+10 5:72 6:72 7:0 8:0 
-0.08479797172658488 1:1856 2:0 3:445 4:4.2950328e+09 5:14976 6:14976 7:0 8:0 
-0.08504762641801311 1:3282 2:0 3:6 4:9.0195755e+10 5:3 6:3 7:0 8:0 
-0.08504762641801311 1:9408 2:0 3:0 4:2.1475164e+10 5:0 6:0 7:0 8:0 
-0.08510777132151681 1:0 2:0 3:3 4:4.2950328e+09 5:216 6:216 7:0 8:0 
-5 1:3 2:0 3:0 4:0 5:3 6:0 7:0 8:0 
-0.06249999999999928 1:4095 2:0 3:0 4:0 5:0 6:0 7:0 8:0 
-0.08510777132151681 1:5816 2:0 3:0 4:1.2e+11 5:0 6:0 7:0 8:0 
-0.08510777132151681 1:3296 2:0 3:1 4:5.5835427e+10 5:0 6:0 7:0 8:0 
-0.08510777132151681 1:64352 2:0 3:362 4:5.154046e+10 5:384 6:384 7:0 8:0 
-0.062496118486221 1:411 2:0 3:0 4:0 5:2 6:0 7:0 8:0 
-0.08580392088571176 1:2608 2:0 3:65 4:4.7245361e+10 5:8 6:8 7:0 8:0 
-0.08659318060989651 1:13776 2:0 3:12 4:6.4425492e+10 5:56 6:56 7:0 8:0 
-0.08669076991387292 1:1013 2:0 3:0 4:0 5:64 6:0 7:0 8:0 
-0.08765362809802968 1:64864 2:0 3:47 4:5.1540394e+10 5:40 6:40 7:0 8:0 
-0.06248556412134759 1:55 2:0 3:0 4:0 5:0 6:0 7:0 8:0 
-0.0877457463107767 1:0 2:0 3:0 4:0 5:65520 6:0 7:0 8:0 
-0.08785299749439535 1:1633 2:0 3:0 4:0 5:2 6:2 7:0 8:0 
-0.08785299749439535 1:63 2:0 3:0 4:0 5:244 6:0 7:0 8:0 
-0.08785299749439535 1:24008 2:0 3:79 4:6.8720525e+10 5:0 6:0 7:0 8:0 
-0.08785299749439535 1:0 2:0 3:0 4:0 5:344 6:344 7:0 8:0 
-0.08789693530251907 1:27328 2:0 3:26 4:6.013046e+10 5:16 6:16 7:0 8:0 
-0.09305970315395445 1:0 2:0 3:36 4:0 5:24 6:24 7:0 8:0 
-0.08817635312138478 1:392 2:0 3:23 4:0 5:464 6:464 7:0 8:0 
-0.08850099995027494 1:0 2:0 3:0 4:3.56e+11 5:1816 6:1816 7:0 8:0 
-0.08850099995027494 1:1957 2:0 3:0 4:0 5:23 6:0 7:0 8:0 
-0.08850099995027494 1:952 2:0 3:1 4:3.8655295e+10 5:0 6:0 7:0 8:0 
-5 1:1 2:0 3:0 4:0 5:0 6:0 7:0 8:0 
-0.08850099995027494 1:17480 2:0 3:56 4:6.013046e+10 5:48 6:48 7:0 8:0 
-0.08892510169419865 1:4118 2:0 3:0 4:8.5900657e+09 5:5 6:5 7:0 8:0 
-0.08892510169419865 1:0 2:0 3:0 4:196611 5:0 6:0 7:0 8:0 
-0.0889469847985162 1:673 2:0 3:0 4:0 5:0 6:0 7:0 8:0 
-0.0889469847985162 1:3344 2:0 3:7 4:2.1475164e+10 5:72 6:72 7:0 8:0 
-5 1:7 2:0 3:0 4:0 5:0 6:0 7:0 8:0 
-0.06249970040098707 1:1909 2:0 3:0 4:1 5:1 6:1 7:0 8:0 
-0.08928434786090322 1:48560 2:0 3:160 4:5.1540394e+10 5:0 6:0 7:0 8:0 
-0.08928434786090322 1:635 2:0 3:0 4:0 5:10 6:0 7:0 8:0 
-0.08988631853529594 1:656 2:0 3:20 4:4.2950328e+10 5:65528 6:65528 7:0 8:0 
-0.08988631853529594 1:44480 2:0 3:14 4:2.66e+11 5:24 6:24 7:0 8:0 
-0.05820589484772043 1:0 2:0 3:22 4:3 5:0 6:0 7:0 8:0 
-0.1036953253193925 1:10600 2:0 3:15 4:5.5835427e+10 5:0 6:0 7:0 8:0 
-0.09214268588769547 1:8336 2:0 3:3779 4:393236 5:18192 6:18192 7:0 8:0 
-0.06237825348914727 1:0 2:0 3:25 4:4 5:0 6:0 7:0 8:0 
-0.09234845409187742 1:57264 2:0 3:941 4:9.4490722e+10 5:7472 6:7472 7:0 8:0 
-0.0923907517632509 1:48912 2:0 3:230 4:5.1540394e+10 5:0 6:0 7:0 8:0 
-0.0923907517632509 1:59480 2:0 3:80 4:4.2950328e+10 5:8 6:8 7:0 8:0 
-0.0923907517632509 1:5816 2:0 3:9 4:3.006523e+10 5:0 6:0 7:0 8:0 
-0.0923907517632509 1:2208 2:0 3:14 4:0 5:408 6:408 7:0 8:0 
-5 1:17 2:0 3:0 4:0 5:0 6:0 7:0 8:0 
-0.09248473451811995 1:52232 2:0 3:135 4:3.8655295e+10 5:184 6:184 7:0 8:0 
-0.09248473451811995 1:2992 2:0 3:412 4:4.2950328e+10 5:1424 6:1424 7:0 8:0 
-0.09248473451811995 1:43 2:0 3:12 4:0 5:0 6:0 7:0 8:0 
-0.06249999999999933 1:0 2:0 3:0 4:0 5:120 6:0 7:0 8:0 
-0.06249614863272962 1:240 2:0 3:0 4:0 5:0 6:0 7:0 8:0 
-0.09248473451811995 1:4624 2:0 3:0 4:0 5:0 6:0 7:0 8:0 
-0.09248473451811995 1:4488 2:0 3:724 4:4.2950328e+10 5:40 6:40 7:0 8:0 
-0.09248473451811995 1:64672 2:0 3:197 4:5.5835427e+10 5:72 6:72 7:0 8:0 
-0.09248473451811995 1:0 2:0 3:26 4:0 5:72 6:72 7:0 8:0 
-0.09248473451811995 1:64744 2:0 3:22 4:9.4490722e+10 5:0 6:0 7:0 8:0 
-0.09290408136958267 1:5536 2:0 3:24 4:5.5835427e+10 5:32 6:32 7:0 8:0 
-2.666857428623334 1:2 2:0 3:0 4:0 5:34 6:0 7:0 8:0 
-0.09326281883815879 1:3936 2:0 3:133 4:6.4425492e+10 5:128 6:128 7:0 8:0 
-0.09326281883815879 1:17200 2:0 3:20 4:2.5770197e+10 5:0 6:0 7:0 8:0 
-0.09353947119294415 1:0 2:0 3:6 4:42 5:0 6:0 7:0 8:0 
-0.09353947119294415 1:33272 2:0 3:335 4:9.0195689e+10 5:0 6:0 7:0 8:0 
-0.06243882167394071 1:3975 2:0 3:0 4:4 5:0 6:0 7:0 8:0 
-0.09381872533715152 1:1719 2:0 3:0 4:0 5:1 6:1 7:0 8:0 
-0.06249614842228607 1:0 2:0 3:0 4:0 5:104 6:0 7:0 8:0 
-0.06249999924494837 1:315 2:0 3:7 4:0 5:0 6:0 7:0 8:0 
-0.09407377799953764 1:4 2:1638402 3:0 4:0 5:0 6:0 7:0 8:0 
-0.09407377799953764 1:0 2:0 3:0 4:0 5:6232 6:0 7:0 8:0 
-0.0941817169483643 1:863 2:0 3:0 4:3 5:10 6:10 7:0 8:0 
-0.09438370363254084 1:59880 2:0 3:5 4:7.7310591e+10 5:432 6:432 7:0 8:0 
-0.09452870929322116 1:4 2:0 3:0 4:0 5:2520 6:0 7:0 8:0 
-0.09452870929322116 1:20696 2:0 3:236 4:0 5:176 6:176 7:0 8:0 
-0.09510870185050019 1:576 2:0 3:0 4:0 5:192 6:192 7:0 8:0 
-0.09510870185050019 1:75 2:0 3:0 4:0 5:8 6:0 7:0 8:0 
-0.09510870185050019 1:19136 2:0 3:1019 4:6.013046e+10 5:568 6:568 7:0 8:0 
-0.09510870185050019 1:463 2:0 3:0 4:0 5:126 6:0 7:0 8:0 
-0.09517082347978839 1:60320 2:0 3:24 4:4.7245361e+10 5:0 6:0 7:0 8:0 
-0.09551687638125295 1:480 2:0 3:113 4:1.46e+11 5:40 6:40 7:0 8:0 
-0.09551687638125295 1:7952 2:0 3:31 4:5.1540394e+10 5:0 6:0 7:0 8:0 
-0.09563860526993928 1:0 2:0 3:0 4:0 5:0 6:0 7:10664 8:0 
-0.09563860526993928 1:0 2:0 3:0 4:0 5:408 6:0 7:0 8:0 
-0.09674601904128033 1:6344 2:0 3:143 4:2.1475164e+10 5:344 6:344 7:0 8:0 
-0.06249560172979524 1:111 2:0 3:0 4:0 5:0 6:0 7:0 8:0 
-0.05817551220371647 1:0 2:0 3:0 4:58 5:0 6:0 7:0 8:0 
-0.09708718078715534 1:35408 2:0 3:209 4:4.7245361e+10 5:160 6:160 7:0 8:0 
-0.09708718078715534 1:4992 2:0 3:877 4:3.4360263e+10 5:0 6:0 7:0 8:0 
-5 1:6 2:0 3:0 4:0 5:0 6:0 7:0 8:0 
-0.09708718078715534 1:356 2:0 3:0 4:0 5:0 6:0 7:0 8:0 
-0.09708718078715534 1:2456 2:0 3:25 4:3.4360263e+10 5:64 6:64 7:0 8:0 
-0.09718862458938315 1:0 2:0 3:22 4:0 5:40 6:40 7:0 8:0 
-0.09781690679400445 1:55688 2:0 3:322 4:4.2950328e+10 5:3008 6:3008 7:0 8:0 
-0.09796476895123951 1:2736 2:0 3:0 4:0 5:0 6:0 7:0 8:0 
-0.09796476895123951 1:20328 2:0 3:33 4:1.7180131e+10 5:0 6:0 7:0 8:0 
-0.09866485357441612 1:502 2:0 3:608 4:3.006523e+10 5:294 6:294 7:0 8:0 
-0.1071150499967538 1:30 2:0 3:0 4:0 5:9 6:0 7:0 8:0 
-0.09894200396429387 1:3018 2:0 3:0 4:2 5:1 6:1 7:0 8:0 
-0.1013417258219155 1:2879 2:0 3:0 4:0 5:2 6:2 7:0 8:0 
-0.1017442619100878 1:963 2:0 3:12 4:0 5:0 6:0 7:0 8:0 
-0.1017446578425171 1:0 2:0 3:0 4:26 5:24 6:24 7:0 8:0 
-0.1026467059181266 1:1600 2:0 3:710 4:4.7245361e+10 5:16 6:16 7:0 8:0 
-0.102826433915874 1:55032 2:0 3:737 4:6.013046e+10 5:7592 6:7592 7:0 8:0 
-0.1030528327079439 1:0 2:0 3:0 4:1 5:16 6:16 7:0 8:0 
-0.1030562714216948 1:8104 2:0 3:84 4:6.013046e+10 5:2520 6:2520 7:0 8:0 
-0.103464391671163 1:776 2:0 3:252 4:6.013046e+10 5:544 6:544 7:0 8:0 
-0.1038990855222498 1:1728 2:0 3:0 4:0 5:0 6:0 7:0 8:0 
-0.1038990855222498 1:0 2:0 3:40 4:0 5:144 6:144 7:0 8:0 
-0.1053797965387048 1:3696 2:0 3:0 4:0 5:1608 6:0 7:0 8:0 
-0.1042048328762078 1:3459 2:0 3:0 4:1 5:0 6:0 7:0 8:0 
-0.1046578503569446 1:33544 2:0 3:5114 4:3 5:72 6:72 7:0 8:0 
-0.1054825442118184 1:0 2:0 3:21 4:7.3015558e+10 5:576 6:576 7:0 8:0 
-0.1054825442118184 1:360 2:0 3:36 4:2.1475164e+10 5:0 6:0 7:0 8:0 
-0.1056282933368484 1:8112 2:0 3:71 4:3.4360263e+10 5:704 6:704 7:0 8:0 
-0.1056411231870966 1:492 2:0 3:6 4:1 5:2 6:2 7:0 8:0 
-0.1062300198488804 1:2856 2:0 3:1 4:6.0130525e+10 5:0 6:0 7:0 8:0 
-0.1068616190690557 1:616 2:0 3:0 4:0 5:54 6:0 7:0 8:0 
-0.1068616190690557 1:8104 2:0 3:2 4:9.0195689e+10 5:0 6:0 7:0 8:0 
-0.1070295366116326 1:2400 2:0 3:713 4:5.5835427e+10 5:0 6:0 7:0 8:0 
-0.1070295366116326 1:43 2:0 3:0 4:0 5:0 6:0 7:0 8:0 
-0.108142621889932 1:2928 2:0 3:87 4:4.2950328e+10 5:32 6:32 7:0 8:0 
-0.1082255292409542 1:1888 2:0 3:5 4:0 5:0 6:0 7:0 8:0 
-0.07431037304224114 1:0 2:0 3:0 4:0 5:14 6:0 7:0 8:0 
-0.1089163471802221 1:12488 2:0 3:1324 4:4.2950328e+09 5:18384 6:18384 7:0 8:0 
-0.1089163471802221 1:2754 2:0 3:0 4:4.2950328e+09 5:0 6:0 7:0 8:0 
-0.1099164254842026 1:23280 2:0 3:75 4:3.8655295e+10 5:0 6:0 7:0 8:0 
-0.1099164254842026 1:80 2:0 3:0 4:0 5:176 6:0 7:0 8:0 
-0.1567461188878635 1:0 2:0 3:0 4:0 5:32 6:0 7:0 8:0 
-0.06214107560866178 1:130 2:0 3:0 4:0 5:1 6:0 7:0 8:0 
-0.1099164254842026 1:3736 2:0 3:0 4:6.013046e+10 5:192 6:192 7:0 8:0 
-0.1099164254842026 1:5672 2:0 3:9 4:5.1540394e+10 5:8 6:8 7:0 8:0 
-0.1102024557768907 1:15784 2:0 3:0 4:0 5:0 6:0 7:0 8:0 
-0.06249999999999978 1:72 2:0 3:0 4:5 5:0 6:0 7:0 8:0 
-5 1:1 2:0 3:0 4:0 5:5 6:0 7:0 8:0 
-0.06249970055074805 1:838 2:0 3:5 4:0 5:0 6:0 7:0 8:0 
-0.1102024557768907 1:45328 2:0 3:211 4:3.8655295e+10 5:552 6:552 7:0 8:0 
-0.1102500063901072 1:20912 2:0 3:68 4:5.1540394e+10 5:104 6:104 7:0 8:0 
-0.1102500063901072 1:2283 2:0 3:6 4:0 5:10 6:10 7:0 8:0 
-0.1102500063901072 1:52984 2:0 3:69 4:4.7245361e+10 5:0 6:0 7:0 8:0 
-0.1102500063901072 1:1895 2:0 3:0 4:0 5:0 6:0 7:0 8:0 
-0.110823710632949 1:2875 2:0 3:0 4:7.7310591e+10 5:0 6:0 7:0 8:0 
-0.1110166921498337 1:3072 2:0 3:28 4:0 5:80 6:80 7:0 8:0 
-0.111960064810136 1:2192 2:0 3:0 4:9.0195689e+10 5:0 6:0 7:0 8:0 
-5 1:25 2:0 3:0 4:0 5:0 6:0 7:0 8:0 
-0.113189648552073 1:2936 2:0 3:0 4:0 5:33688 6:0 7:0 8:0 
-0.113189648552073 1:26 2:0 3:0 4:0 5:44 6:0 7:0 8:0 
-0.113189648552073 1:8368 2:0 3:77 4:8.5900657e+10 5:448 6:448 7:0 8:0 
-0.113189648552073 1:400 2:0 3:51 4:51 5:568 6:568 7:0 8:0 
-0.1136628185718133 1:10024 2:0 3:586 4:5.1540394e+10 5:16 6:16 7:0 8:0 
-0.113772190957259 1:0 2:0 3:0 4:0 5:4133 6:0 7:0 8:0 
-0.113772190957259 1:2496 2:0 3:0 4:0 5:0 6:0 7:0 8:0 
-0.113772190957259 1:61672 2:0 3:9 4:5.1540394e+10 5:64 6:64 7:0 8:0 
-0.113772190957259 1:12936 2:0 3:5 4:5.1540394e+10 5:0 6:0 7:0 8:0 
-0.1141107146679897 1:9472 2:0 3:22 4:3.4360263e+10 5:48 6:48 7:0 8:0 
-0.1141834221607191 1:0 2:0 3:0 4:0 5:10 6:10 7:51 8:0 
-0.1145177962898807 1:5504 2:0 3:0 4:6.4425492e+10 5:8 6:8 7:0 8:0 
-0.1145177962898807 1:0 2:0 3:0 4:0 5:5616 6:0 7:0 8:0 
-0.1145177962898807 1:0 2:0 3:0 4:0 5:0 6:0 7:89 8:0 
-0.1145177962898807 1:488 2:0 3:18 4:5.1540394e+10 5:65528 6:65528 7:0 8:0 
-0.1145261480368569 1:4018 2:0 3:12 4:0 5:1 6:1 7:0 8:0 
-0.1145261480368569 1:1632 2:0 3:0 4:1.68e+11 5:8 6:8 7:0 8:0 
-0.1147375602542648 1:0 2:0 3:0 4:0 5:128 6:128 7:0 8:0 
-0.1147375602542648 1:54592 2:0 3:0 4:5.1540394e+10 5:0 6:0 7:0 8:0 
-0.1151620174946427 1:4090 2:0 3:6 4:1 5:1 6:1 7:0 8:0 
-0.1153095242618946 1:0 2:0 3:213 4:8.5900657e+09 5:296 6:296 7:0 8:0 
-0.116541544906795 1:8656 2:0 3:568 4:7.3015558e+10 5:8 6:8 7:0 8:0 
-0.116541544906795 1:1688 2:0 3:191 4:5.5835427e+10 5:0 6:0 7:0 8:0 
-0.116541544906795 1:381 2:0 3:1 4:0 5:2 6:2 7:0 8:0 
-0.1173733273532232 1:14360 2:0 3:0 4:0 5:0 6:0 7:0 8:0 
-0.1176876468978406 1:9440 2:0 3:233 4:3.8655295e+10 5:640 6:640 7:0 8:0 
-0.1180531607211108 1:16976 2:0 3:3 4:1.7180131e+10 5:24 6:24 7:0 8:0 
-0.06249970049200404 1:0 2:0 3:19 4:6 5:0 6:0 7:0 8:0 
-0.1180531607211108 1:0 2:0 3:10 4:5.1540394e+10 5:1840 6:1840 7:0 8:0 
-0.1198696823158337 1:17240 2:0 3:513 4:1.03e+11 5:12840 6:12840 7:0 8:0 
-0.06203266783917488 1:0 2:0 3:0 4:17 5:0 6:0 7:0 8:0 
-0.1198696823158337 1:22368 2:0 3:270 4:6.013046e+10 5:920 6:920 7:0 8:0 
-0.119869685597329 1:246 2:0 3:0 4:0 5:0 6:0 7:0 8:0 
-0.119869685597329 1:0 2:0 3:0 4:0 5:40 6:40 7:0 8:0 
-5 1:3 2:0 3:0 4:0 5:0 6:0 7:0 8:0 
-0.119869685597329 1:64720 2:0 3:0 4:0 5:48 6:0 7:0 8:0 
-0.119869685597329 1:0 2:0 3:0 4:0 5:974 6:0 7:0 8:0 
-0.1203593694123946 1:8120 2:0 3:31 4:6.013046e+10 5:112 6:112 7:0 8:0 
-0.1203593694123946 1:622 2:0 3:7 4:0 5:0 6:0 7:0 8:0 
-0.1203593694123946 1:0 2:0 3:0 4:0 5:4 6:3 7:36 8:0 
-0.1203593694123946 1:1181 2:0 3:5 4:9.8785755e+10 5:0 6:0 7:0 8:0 
-0.1209685637616414 1:58784 2:0 3:99 4:3.4360263e+10 5:72 6:72 7:0 8:0 
-0.1218622389156686 1:3203 2:0 3:40 4:0 5:0 6:0 7:0 8:0 
-0.1218622389156686 1:3880 2:0 3:0 4:0 5:0 6:0 7:0 8:0 
-0.06249999999999922 1:64736 2:0 3:0 4:0 5:0 6:0 7:0 8:0 
-0.1218622389156686 1:11984 2:0 3:253 4:7.3015558e+10 5:40 6:40 7:0 8:0 
-0.06175946772191288 1:1995 2:0 3:0 4:0 5:0 6:0 7:0 8:0 
-0.1218622389156686 1:920 2:0 3:1 4:5.5835427e+10 5:832 6:832 7:0 8:0 
-0.1220422133314329 1:4416 2:0 3:24 4:8.1605624e+10 5:0 6:0 7:0 8:0 
-0.1223111439942536 1:57448 2:0 3:12 4:5.1540394e+10 5:0 6:0 7:0 8:0 
-0.1224719915322163 1:406 2:0 3:0 4:0 5:0 6:0 7:0 8:0 
-0.1226449681534937 1:3360 2:0 3:14 4:3.4360263e+10 5:0 6:0 7:0 8:0 
-0.1232073003551619 1:355 2:0 3:94 4:4.2950328e+09 5:13 6:13 7:0 8:0 
-0.1232073003551619 1:1995 2:0 3:0 4:0 5:3 6:0 7:0 8:0 
-0.1232073003551619 1:40 2:0 3:3531 4:6.4e+11 5:0 6:0 7:0 8:0 
-0.06249999999999922 1:64728 2:0 3:0 4:0 5:8 6:0 7:0 8:0 
-0.1232073003551619 1:6144 2:0 3:101 4:5.1540394e+10 5:8 6:8 7:0 8:0 
-1.940855538458484 1:1 2:0 3:0 4:0 5:22 6:0 7:0 8:0 
-0.1236558018299981 1:0 2:0 3:64 4:8.5900657e+10 5:8 6:8 7:0 8:0 
-0.07757137065475767 1:0 2:0 3:0 4:28 5:0 6:0 7:0 8:0 
-0.1242377514297567 1:29296 2:0 3:33 4:3.4360263e+10 5:24 6:24 7:0 8:0 
-0.1242377514297567 1:740 2:0 3:0 4:0 5:0 6:0 7:0 8:0 
-0.1242490631634867 1:2198 2:0 3:0 4:1 5:1 6:1 7:0 8:0 
-0.1242490631634867 1:1232 2:0 3:579 4:0 5:1544 6:1544 7:0 8:0 
-0.1242490631634867 1:10752 2:0 3:112 4:1.2885099e+10 5:0 6:0 7:0 8:0 
-0.1242490631634867 1:616 2:0 3:0 4:0 5:64 6:0 7:0 8:0 
-0.124300266305165 1:45 2:0 3:0 4:1.2885098e+10 5:0 6:0 7:0 8:0 
-0.124347571106421 1:6232 2:0 3:17 4:8.1605624e+10 5:0 6:0 7:0 8:0 
-0.1243990079056437 1:14952 2:0 3:148 4:4.7245361e+10 5:0 6:0 7:0 8:0 
-0.06249559563076285 1:88 2:0 3:0 4:0 5:0 6:0 7:0 8:0 
-0.1245021816961779 1:11440 2:0 3:43 4:5.1540394e+10 5:0 6:0 7:0 8:0 
-0.1245021816961779 1:2424 2:0 3:238 4:2.1475164e+10 5:200 6:200 7:0 8:0 
-5 1:14 2:0 3:0 4:0 5:13 6:0 7:0 8:0 
-0.124513128721695 1:75 2:0 3:0 4:0 5:65319 6:0 7:0 8:0 
-0.124513128721695 1:7704 2:0 3:0 4:0 5:0 6:0 7:0 8:0 
-0.124513128721695 1:0 2:0 3:0 4:0 5:352 6:0 7:0 8:0 
-0.124513128721695 1:0 2:0 3:0 4:0 5:110 6:0 7:0 8:0 
-0.124525993847741 1:3735 2:0 3:0 4:0 5:0 6:0 7:0 8:0 
-0.124525993847741 1:64640 2:0 3:0 4:0 5:96 6:0 7:0 8:0 
-0.124525993847741 1:4344 2:0 3:193 4:7.3015558e+10 5:65528 6:65528 7:0 8:0 
-0.124525993847741 1:0 2:0 3:26 4:3.4360263e+10 5:464 6:464 7:0 8:0 
-0.1245441263966555 1:1927 2:0 3:0 4:0 5:91 6:0 7:0 8:0 
-0.1246192510455546 1:3296 2:0 3:35 4:6.013046e+10 5:0 6:0 7:0 8:0 
-0.1247140439861238 1:4192 2:0 3:236 4:7.7310591e+10 5:16 6:16 7:0 8:0 
-0.07047433319614527 1:1971 2:0 3:0 4:0 5:9 6:0 7:0 8:0 
-0.06883479011809296 1:8800 2:0 3:3696 4:4.7245361e+10 5:65528 6:65528 7:0 8:0 
-0.06671509009793075 1:3704 2:0 3:1253 4:4.2950328e+10 5:0 6:0 7:0 8:0 
-0.06669918550047604 1:1944 2:0 3:213 4:5.1540394e+10 5:912 6:912 7:0 8:0 
-0.06600155645840161 1:3975 2:0 3:1 4:1.59e+11 5:2 6:2 7:0 8:0 
-0.06556199211693636 1:3984 2:0 3:88 4:3.4360263e+10 5:24 6:24 7:0 8:0 
-0.06538135680061469 1:224 2:0 3:78 4:1 5:0 6:0 7:0 8:0 
-0.06500894780711852 1:3808 2:0 3:96 4:5.5835427e+10 5:0 6:0 7:0 8:0 
-0.06285649202246102 1:58576 2:0 3:30 4:3.006523e+10 5:40 6:40 7:0 8:0 
-0.0628122012318057 1:8480 2:0 3:420 4:6.4425492e+10 5:88 6:88 7:0 8:0 
-0.06249970631322416 1:0 2:0 3:0 4:60 5:0 6:0 7:0 8:0 
-0.06281012928588459 1:64512 2:0 3:1212 4:5.1540394e+10 5:24 6:24 7:0 8:0 
-5 1:16 2:0 3:0 4:0 5:8 6:0 7:0 8:0 
-0.06249684931076899 1:4206 2:0 3:0 4:0 5:1 6:0 7:0 8:0 
-0.06250179965102587 1:2504 2:0 3:346 4:4.7245361e+10 5:8 6:8 7:0 8:0 
-0.06249605873034852 1:936 2:0 3:59 4:4.7245361e+10 5:0 6:0 7:0 8:0 
-0.06249389013737044 1:5336 2:0 3:20 4:2.5770197e+10 5:0 6:0 7:0 8:0 
-0.06249452078927131 1:1208 2:0 3:390 4:2.1475164e+10 5:0 6:0 7:0 8:0 
-0.0624958920753978 1:257 2:0 3:12 4:0 5:0 6:0 7:0 8:0 
-0.06249585189993823 1:3725 2:0 3:0 4:2.5770328e+10 5:0 6:0 7:0 8:0 
-0.06249623296926354 1:0 2:0 3:36 4:1.42e+11 5:0 6:0 7:0 8:0 
-0.06249618025468423 1:11096 2:0 3:55 4:2.1e+11 5:56 6:56 7:0 8:0 
-0.06249615855023399 1:1236 2:0 3:0 4:1.2885099e+10 5:0 6:0 7:0 8:0 
-0.06249615352051302 1:64648 2:0 3:4 4:3.4360263e+10 5:88 6:88 7:0 8:0 
-0.9497717820110541 1:0 2:0 3:0 4:0 5:1 6:0 7:0 8:0 
-0.0624985820891697 1:928 2:0 3:92 4:0 5:208 6:208 7:0 8:0 
-0.06249858187207796 1:0 2:0 3:0 4:0 5:464 6:0 7:0 8:0 
-0.05425173599766164 1:2005 2:0 3:0 4:0 5:0 6:0 7:0 8:0 
-0.06249858184286294 1:816 2:0 3:96 4:4.2950328e+10 5:1760 6:1760 7:0 8:0 
-0.06249970070439914 1:0 2:0 3:4 4:4.2950328e+09 5:136 6:136 7:0 8:0 
-0.06249970063129928 1:4512 2:0 3:38 4:3.8655295e+10 5:1216 6:1216 7:0 8:0 
-0.06249999924586863 1:64728 2:0 3:0 4:0 5:0 6:0 7:0 8:0 
-0.0624999992454785 1:10 2:0 3:0 4:0 5:542 6:542 7:0 8:0 
-0.06249999924527255 1:5880 2:0 3:0 4:0 5:9128 6:0 7:0 8:0 
-0.06249999924519223 1:754 2:0 3:0 4:0 5:3 6:0 7:0 8:0 
-0.06250000000000078 1:0 2:0 3:2 4:1.16e+11 5:0 6:0 7:0 8:0 
-0.06250000000000078 1:871 2:0 3:0 4:0 5:0 6:0 7:0 8:0 
-0.06250000000000072 1:2795 2:0 3:0 4:8.5900657e+09 5:0 6:0 7:0 8:0 
-0.06250000000000067 1:1816 2:0 3:53 4:6.8720525e+10 5:480 6:480 7:0 8:0 
-0.06250000000000061 1:0 2:0 3:0 4:0 5:96 6:0 7:0 8:0 
-0.06250000000000044 1:2520 2:0 3:1066 4:1.29e+11 5:8 6:8 7:0 8:0 
-0.06250000000000039 1:840 2:0 3:0 4:0 5:3 6:3 7:0 8:0 
-0.06250000000000028 1:22320 2:0 3:36 4:5.1540394e+10 5:30 6:30 7:0 8:0 
-0.06250000000000022 1:644 2:0 3:6 4:4.2950328e+09 5:0 6:0 7:0 8:0 
-0.0625 1:30552 2:0 3:207 4:4.2950328e+10 5:8 6:8 7:0 8:0 
-0.06250000000001593 1:4936 2:0 3:28 4:9.4490722e+10 5:0 6:0 7:0 8:0 
-0.06250000000001593 1:3800 2:0 3:48 4:6.8720525e+10 5:8 6:8 7:0 8:0 
-0.06250000148947948 1:3569 2:0 3:0 4:1 5:1 6:1 7:0 8:0 
-0.06250000148947948 1:3240 2:0 3:239 4:0 5:16 6:16 7:0 8:0 
-0.06250000148947948 1:0 2:0 3:30 4:0 5:32 6:32 7:0 8:0 
-0.06250000148947948 1:1266 2:0 3:1 4:9.4490722e+10 5:0 6:0 7:0 8:0 
-0.06251071637693095 1:4085 2:0 3:12 4:7.3015558e+10 5:0 6:0 7:0 8:0 
-0.06251071637693095 1:10280 2:0 3:0 4:3.8655295e+10 5:0 6:0 7:0 8:0 
-0.0625117566817866 1:4536 2:0 3:652 4:1.72e+11 5:64 6:64 7:0 8:0 
-0.0625117566817866 1:59864 2:0 3:37 4:3.4360263e+10 5:16 6:16 7:0 8:0 
-0.06704297904537954 1:10 2:0 3:0 4:0 5:6 6:6 7:0 8:0 
-0.0625117566817866 1:8160 2:0 3:1421 4:1.42e+11 5:104 6:104 7:0 8:0 
-0.0625117566817866 1:19072 2:0 3:5 4:7.3015558e+10 5:24 6:24 7:0 8:0 
-0.06266401736275357 1:744 2:0 3:20 4:4.2950328e+09 5:80 6:80 7:0 8:0 
-0.06275644492285481 1:618 2:0 3:0 4:0 5:360 6:0 7:0 8:0 
-0.06277518172576707 1:5208 2:0 3:582 4:4.7245361e+10 5:0 6:0 7:0 8:0 
-0.06277518172576707 1:0 2:0 3:0 4:3.006523e+10 5:65528 6:65528 7:0 8:0 
-0.06285105662055218 1:0 2:0 3:36 4:0 5:0 6:0 7:0 8:0 
-0.06285105662055218 1:0 2:262144 3:0 4:0 5:0 6:0 7:0 8:0 
-0.0630495769483348 1:60352 2:0 3:25 4:3.4360263e+10 5:0 6:0 7:0 8:0 
-0.06311630994681366 1:39304 2:0 3:48 4:5.1540394e+10 5:648 6:648 7:0 8:0 
-0.06315003318788998 1:160 2:0 3:0 4:0 5:46 6:0 7:0 8:0 
-0.06315003318788998 1:2712 2:0 3:228 4:6.013046e+10 5:8 6:8 7:0 8:0 
-0.06315003318788998 1:624 2:0 3:0 4:8.5900657e+09 5:64 6:64 7:0 8:0 
-0.06249999924383925 1:2638 2:0 3:0 4:0 5:0 6:0 7:0 8:0 
-0.06315003318788998 1:3272 2:0 3:1678 4:3.4360263e+10 5:0 6:0 7:0 8:0 
-0.06320412791831154 1:0 2:0 3:90 4:4.7245361e+10 5:4000 6:4000 7:0 8:0 
-0.06320413047845796 1:51424 2:0 3:64 4:4.2950328e+10 5:0 6:0 7:0 8:0 
-0.0632041330668805 1:5800 2:0 3:20 4:8.5900657e+10 5:8 6:8 7:0 8:0 
-0.0632041330668805 1:0 2:0 3:0 4:1.37e+11 5:0 6:0 7:0 8:0 
-0.05314762606175133 1:0 2:0 3:0 4:12 5:0 6:0 7:0 8:0 
-0.06323190822097913 1:9240 2:0 3:11 4:7.3015558e+10 5:0 6:0 7:0 8:0 
-0.06249563599946273 1:149 2:0 3:0 4:0 5:1 6:0 7:0 8:0 
-0.06414011415001802 1:46376 2:0 3:117 4:4.2950328e+09 5:1200 6:1200 7:0 8:0 
-0.06414011415001802 1:14144 2:0 3:1388 4:8.5900657e+10 5:200 6:200 7:0 8:0 
-0.06502084449902296 1:328 2:0 3:16 4:0 5:424 6:424 7:0 8:0 
-0.06502084449902296 1:0 2:0 3:6 4:0 5:120 6:120 7:0 8:0 
-0.06538573574583545 1:1242 2:0 3:0 4:0 5:0 6:0 7:0 8:0 
-0.06567715107295308 1:6632 2:0 3:979 4:8.1605624e+10 5:448 6:448 7:0 8:0 
-0.06577066424258476 1:24928 2:0 3:30 4:9.0195689e+10 5:160 6:160 7:0 8:0 
-0.06700012296321695 1:0 2:0 3:24 4:3 5:16 6:16 7:0 8:0 
-0.071136035046721 1:6896 2:0 3:44 4:3.8655295e+10 5:24 6:24 7:0 8:0 
-0.08669076991387298 1:62768 2:0 3:171 4:5.5835427e+10 5:0 6:0 7:0 8:0 
-0.06704297848494817 1:9360 2:0 3:13 4:7.7310591e+10 5:0 6:0 7:0 8:0 
-0.06704297850260538 1:14256 2:0 3:74 4:8.5900661e+10 5:18208 6:18208 7:0 8:0 
-0.06704297850297053 1:0 2:0 3:0 4:1.33e+11 5:32 6:32 7:0 8:0 
-0.06704297850297053 1:16720 2:0 3:1920 4:9.0195689e+10 5:1792 6:1792 7:0 8:0 
-0.06717485697077119 1:16256 2:0 3:1086 4:5.5835427e+10 5:16 6:16 7:0 8:0 
-0.06759843550427258 1:11664 2:0 3:4 4:4.7245361e+10 5:0 6:0 7:0 8:0 
-0.06249614522039221 1:0 2:0 3:7 4:0 5:0 6:0 7:0 8:0 
-0.6824647724828576 1:6 2:0 3:0 4:0 5:8 6:0 7:0 8:0 
-0.06759843550427258 1:7584 2:0 3:2905 4:4.2950328e+09 5:6400 6:6400 7:0 8:0 
-0.07140171658694539 1:37504 2:0 3:110 4:2.5770197e+10 5:256 6:256 7:0 8:0 
-0.07181000980873431 1:0 2:0 3:0 4:0 5:232 6:0 7:0 8:0 
-0.07273919998529771 1:0 2:0 3:171 4:8.5900657e+09 5:1856 6:1856 7:0 8:0 
-0.07273919998529771 1:13856 2:0 3:0 4:0 5:4264 6:0 7:0 8:0 
-0.06249614019067123 1:3013 2:0 3:0 4:0 5:0 6:0 7:0 8:0 
-0.07316324317130024 1:3173 2:0 3:0 4:0 5:0 6:0 7:0 8:0 
-0.07341568498649403 1:5456 2:0 3:26 4:6.8720525e+10 5:0 6:0 7:0 8:0 
-0.073635396426382 1:8 2:0 3:0 4:0 5:32 6:32 7:0 8:0 
-0.07397046600012508 1:15456 2:0 3:0 4:0 5:16 6:0 7:0 8:0 
-0.07397046600012508 1:300 2:0 3:0 4:0 5:0 6:0 7:0 8:0 
-0.07400095178650218 1:315 2:0 3:0 4:0 5:470 6:0 7:0 8:0 
-0.07400340592121468 1:0 2:0 3:142 4:3.69e+11 5:0 6:0 7:0 8:0 
-0.07400340592121468 1:12544 2:0 3:59 4:5.5835427e+10 5:0 6:0 7:0 8:0 
-0.07456077561658409 1:0 2:0 3:3 4:1 5:72 6:72 7:0 8:0 
-0.07498723188240958 1:104 2:0 3:0 4:0 5:1008 6:0 7:0 8:0 
-0.07559599948050927 1:5192 2:0 3:761 4:6.8720526e+10 5:1280 6:1280 7:0 8:0 
-0.07564454924717151 1:28088 2:0 3:518 4:0 5:392 6:392 7:0 8:0 
-0.07571839109447137 1:4456 2:0 3:118 4:4.7245361e+10 5:464 6:464 7:0 8:0 
-0.07571839109447137 1:44416 2:0 3:145 4:4.7245361e+10 5:0 6:0 7:0 8:0 
-0.07627395327266628 1:538 2:0 3:100 4:1.7180197e+10 5:34 6:34 7:0 8:0 
-0.07627395327266628 1:116 2:0 3:0 4:0 5:0 6:0 7:0 8:0 
-0.07667933195152793 1:1043 2:0 3:72 4:3 5:2 6:2 7:0 8:0 
-0.07713714431065299 1:2719 2:0 3:0 4:1 5:0 6:0 7:0 8:0 
-0.07831874026599733 1:0 2:0 3:0 4:0 5:384 6:384 7:0 8:0 
-0.07831874026599733 1:5104 2:0 3:119 4:4.7245361e+10 5:32 6:32 7:0 8:0 
-0.07854459016731236 1:4572 2:0 3:1 4:0 5:0 6:0 7:0 8:0 
-0.07854459016731236 1:2968 2:0 3:76 4:2.1475164e+10 5:0 6:0 7:0 8:0 
-0.07854459016731236 1:6304 2:0 3:827 4:5.5835427e+10 5:0 6:0 7:0 8:0 
-0.07854459016731236 1:1928 2:0 3:63 4:3.65e+11 5:0 6:0 7:0 8:0 
-0.07886213893582389 1:0 2:0 3:0 4:48 5:0 6:0 7:0 8:0 
-5 1:12 2:0 3:0 4:0 5:0 6:0 7:0 8:0 
-0.06249858063223651 1:0 2:1638417 3:0 4:0 5:0 6:0 7:0 8:0 
-0.07886213893582389 1:1756 2:0 3:0 4:0 5:235 6:0 7:0 8:0 
-0.07946520745867286 1:65176 2:0 3:2463 4:5.5835427e+10 5:24 6:24 7:0 8:0 
-0.06249999999999972 1:0 2:0 3:1 4:0 5:8 6:8 7:0 8:0 
-0.07954656126664789 1:26912 2:0 3:104 4:3.4360263e+10 5:328 6:328 7:0 8:0 
-0.07954656126664789 1:93 2:0 3:0 4:0 5:0 6:0 7:0 8:0 
-0.06259199256499975 1:28 2:0 3:0 4:0 5:30 6:0 7:0 8:0 
-0.07990318412565539 1:2815 2:0 3:0 4:0 5:0 6:0 7:0 8:0 
-0.08060590705455301 1:1391 2:0 3:0 4:0 5:24 6:0 7:0 8:0 
-0.08140795927016409 1:1211 2:0 3:8 4:0 5:17 6:17 7:0 8:0 
-0.320327358910582 1:0 2:0 3:0 4:0 5:33 6:0 7:0 8:0 
-1.278038261858231 1:0 2:0 3:0 4:0 5:3 6:0 7:0 8:0 
-0.08140795927016409 1:9240 2:0 3:473 4:5.5835427e+10 5:2000 6:2000 7:0 8:0 
-0.1514398535490634 1:0 2:0 3:0 4:0 5:0 6:0 7:2 8:0 
-0.08140795927016409 1:0 2:1638423 3:0 4:0 5:0 6:0 7:0 8:0 
-0.08140795927016409 1:62680 2:0 3:0 4:0 5:32 6:0 7:0 8:0 
-0.08261622963984677 1:0 2:0 3:0 4:0 5:80 6:0 7:0 8:0 
-0.08300330367236647 1:7312 2:0 3:7 4:3.4360263e+10 5:0 6:0 7:0 8:0 
-0.08300330367236647 1:0 2:0 3:0 4:0 5:1136 6:0 7:0 8:0 
-0.08300330367236647 1:0 2:0 3:0 4:8.1605624e+10 5:0 6:0 7:0 8:0 
-0.08300330367236647 1:0 2:0 3:108 4:0 5:1552 6:1552 7:0 8:0 
-0.08355751521091742 1:272 2:0 3:573 4:0 5:4064 6:4064 7:0 8:0 
-0.08355751521091742 1:45856 2:0 3:415 4:3.4360263e+10 5:0 6:0 7:0 8:0 
-0.06249999924400607 1:0 2:0 3:6 4:0 5:64 6:64 7:0 8:0 
-0.08451726097029966 1:4092 2:0 3:0 4:4.2950394e+10 5:3 6:3 7:0 8:0 
-0.08451726097029966 1:1696 2:0 3:0 4:0 5:152 6:152 7:0 8:0 
-0.08479797172658488 1:11096 2:0 3:105 4:6.8720525e+10 5:832 6:832 7:0 8:0 
-0.08504762641801317 1:465 2:0 3:0 4:0 5:96 6:0 7:0 8:0 
-5 1:10 2:0 3:0 4:0 5:0 6:0 7:0 8:0 
-0.08510777132151676 1:80 2:0 3:0 4:0 5:48 6:0 7:0 8:0 
-0.08510777132151676 1:10672 2:0 3:47 4:7.7310591e+10 5:0 6:0 7:0 8:0 
-0.08659318060989657 1:0 2:0 3:55 4:3.006523e+10 5:1008 6:1008 7:0 8:0 
-0.08765362809802962 1:1584 2:0 3:92 4:6.4425492e+10 5:24 6:24 7:0 8:0 
-0.08774574631077664 1:60976 2:0 3:0 4:3.006523e+10 5:0 6:0 7:0 8:0 
-0.08785299749439535 1:443 2:0 3:0 4:1.7180131e+10 5:590 6:590 7:0 8:0 
-0.08785299749439535 1:0 2:0 3:15 4:1.98e+11 5:0 6:0 7:0 8:0 
-0.08850099995027494 1:7128 2:0 3:266 4:0 5:248 6:248 7:0 8:0 
-0.08850099995027494 1:27552 2:0 3:18 4:7.7310591e+10 5:48 6:48 7:0 8:0 
-0.08892510169419865 1:520 2:0 3:114 4:8.5900657e+10 5:72 6:72 7:0 8:0 
-0.0889469847985162 1:0 2:0 3:34 4:6.8720591e+10 5:264 6:264 7:0 8:0 
-0.08928434786090322 1:1523 2:0 3:112 4:2.66e+11 5:0 6:0 7:0 8:0 
-0.08988631853529594 1:677 2:0 3:0 4:3.8655295e+10 5:3 6:3 7:0 8:0 
-0.07226089435692018 1:9208 2:0 3:29 4:6.4425492e+10 5:0 6:0 7:0 8:0 
-0.1062300198488803 1:11544 2:0 3:5 4:0 5:72 6:72 7:0 8:0 
-0.0923907517632509 1:0 2:0 3:95 4:2.02e+11 5:0 6:0 7:0 8:0 
-0.0923907517632509 1:888 2:0 3:232 4:3.006523e+10 5:0 6:0 7:0 8:0 
-0.09248473451811995 1:133 2:0 3:0 4:0 5:0 6:0 7:0 8:0 
-0.09248473451811995 1:59 2:0 3:0 4:0 5:5 6:0 7:0 8:0 
-0.09248473451811995 1:7992 2:0 3:783 4:6.0130461e+10 5:32 6:32 7:0 8:0 
-2.118807076316984 1:3 2:0 3:0 4:0 5:32 6:0 7:0 8:0 
-0.09248473451811995 1:0 2:0 3:20 4:1.76e+11 5:56 6:56 7:0 8:0 
-0.09290408136958267 1:8032 2:0 3:0 4:0 5:0 6:0 7:0 8:0 
-0.09326281883815873 1:10392 2:0 3:139 4:4.2950328e+10 5:88 6:88 7:0 8:0 
-0.06249999924463395 1:215 2:0 3:0 4:0 5:1 6:0 7:0 8:0 
-0.09353947119294415 1:117 2:0 3:46 4:2 5:1 6:1 7:0 8:0 
-0.0940737779995377 1:5256 2:0 3:217 4:4.2950328e+10 5:8 6:8 7:0 8:0 
-0.09418171694836425 1:36616 2:0 3:46 4:3.8655295e+10 5:8 6:8 7:0 8:0 
-0.09452870929322116 1:2631 2:0 3:0 4:0 5:0 6:0 7:0 8:0 
-0.09510870185050019 1:49120 2:0 3:0 4:0 5:88 6:0 7:0 8:0 
-0.09510870185050019 1:58112 2:0 3:145 4:3.8655295e+10 5:8 6:8 7:0 8:0 
-0.095516876381253 1:154 2:0 3:0 4:0 5:0 6:0 7:0 8:0 
-0.09563860526993934 1:0 2:0 3:12 4:0 5:344 6:344 7:0 8:0 
-5 1:16 2:0 3:0 4:0 5:0 6:0 7:0 8:0 
-0.09674601904128027 1:2464 2:0 3:204 4:0 5:10448 6:10448 7:0 8:0 
-0.09708718078715534 1:0 2:0 3:23 4:1 5:0 6:0 7:0 8:0 
-0.09708718078715534 1:1704 2:0 3:477 4:2.5770197e+10 5:0 6:0 7:0 8:0 
-0.05987869708622773 1:0 2:0 3:6 4:2 5:0 6:0 7:0 8:0 
-0.09718862458938315 1:2192 2:0 3:6 4:4.2950328e+09 5:1 6:1 7:0 8:0 
-0.09796476895123957 1:9040 2:0 3:0 4:0 5:16 6:16 7:0 8:0 
-0.1013417258219155 1:24 2:0 3:77 4:0 5:528 6:528 7:0 8:0 
-0.1796864321399645 1:0 2:0 3:0 4:0 5:4 6:0 7:0 8:0 
-0.1017446578425171 1:1480 2:0 3:0 4:1 5:0 6:0 7:0 8:0 
-0.1026467059181266 1:1271 2:0 3:0 4:0 5:421 6:0 7:0 8:0 
-0.1030562714216948 1:105 2:0 3:35 4:7 5:0 6:0 7:0 8:0 
-0.06249614562913186 1:0 2:0 3:0 4:7 5:0 6:0 7:0 8:0 
-0.06232489500763477 1:218 2:0 3:0 4:1 5:1 6:1 7:0 8:0 
-0.1038990855222499 1:1451 2:0 3:0 4:0 5:0 6:0 7:0 8:0 
-0.1054825442118184 1:4095 2:0 3:0 4:7.3015624e+10 5:0 6:0 7:0 8:0 
-0.1056411231870966 1:190 2:0 3:0 4:0 5:608 6:0 7:0 8:0 
-5 1:26 2:0 3:0 4:0 5:1 6:0 7:0 8:0 
-0.1068616190690557 1:37 2:0 3:0 4:0 5:112 6:0 7:0 8:0 
-0.1070295366116326 1:544 2:0 3:39 4:5.1540394e+10 5:0 6:0 7:0 8:0 
-0.1081426218899319 1:450 2:0 3:0 4:0 5:13 6:0 7:0 8:0 
-0.1089163471802221 1:16 2:0 3:0 4:38 5:0 6:0 7:0 8:0 
-1.698138528693347 1:5 2:0 3:0 4:0 5:31 6:0 7:0 8:0 
-0.1099164254842026 1:0 2:0 3:0 4:0 5:128 6:0 7:0 8:0 
-0.1099164254842026 1:0 2:0 3:15 4:0 5:48 6:48 7:0 8:0 
-0.1102024557768906 1:292 2:0 3:0 4:0 5:24 6:0 7:0 8:0 
-0.1102500063901071 1:512 2:0 3:155 4:1.07e+11 5:136 6:136 7:0 8:0 
-0.1102500063901071 1:0 2:0 3:0 4:0 5:336 6:0 7:0 8:0 
-0.110823710632949 1:3523 2:0 3:12 4:1 5:1 6:1 7:0 8:0 
-0.06249999999999956 1:0 2:0 3:0 4:0 5:48 6:0 7:0 8:0 
-0.05554418150979684 1:3974 2:0 3:1 4:0 5:1 6:1 7:0 8:0 
-0.1110166921498336 1:6296 2:0 3:11 4:2.1475164e+10 5:0 6:0 7:0 8:0 
-0.113189648552073 1:0 2:0 3:19 4:4.2950328e+09 5:528 6:528 7:0 8:0 
-0.113189648552073 1:267 2:0 3:0 4:0 5:0 6:0 7:0 8:0 
-0.1137721909572589 1:3102 2:0 3:0 4:1 5:0 6:0 7:0 8:0 
-0.1137721909572589 1:632 2:0 3:0 4:2.5770197e+10 5:0 6:0 7:0 8:0 
-0.1141107146679898 1:370 2:0 3:0 4:131081 5:0 6:0 7:0 8:0 
-0.1141834221607191 1:664 2:0 3:0 4:0 5:48 6:0 7:0 8:0 
-5 1:6 2:0 3:0 4:0 5:0 6:0 7:0 8:0 
-0.1145177962898807 1:1371 2:0 3:0 4:0 5:0 6:0 7:0 8:0 
-0.1145177962898807 1:4808 2:0 3:80 4:3.006523e+10 5:168 6:168 7:0 8:0 
-0.1145261480368568 1:4312 2:0 3:57 4:2.5770197e+10 5:0 6:0 7:0 8:0 
-0.1147375602542648 1:0 2:0 3:6 4:7.7310591e+10 5:0 6:0 7:0 8:0 
-0.1151620174946427 1:47080 2:0 3:0 4:0 5:24 6:0 7:0 8:0 
-0.1153095242618946 1:532 2:0 3:0 4:0 5:13 6:0 7:0 8:0 
-0.116541544906795 1:688 2:0 3:2065 4:6.4425493e+10 5:24 6:24 7:0 8:0 
-0.05932565277640989 1:0 2:0 3:11 4:0 5:0 6:0 7:0 8:0 
-0.116541544906795 1:2536 2:0 3:102 4:4.2950328e+10 5:0 6:0 7:0 8:0 
-0.1173733273532232 1:0 2:393222 3:0 4:0 5:0 6:0 7:0 8:0 
-0.1176876468978406 1:929 2:0 3:0 4:0 5:1 6:0 7:0 8:0 
-0.1180531607211108 1:37672 2:0 3:20 4:8.1605624e+10 5:8 6:8 7:0 8:0 
-0.06437505299789226 1:2003 2:0 3:0 4:0 5:0 6:0 7:0 8:0 
-0.119869685597329 1:50592 2:0 3:100 4:5.5835427e+10 5:568 6:568 7:0 8:0 
-0.06432550408753213 1:2651 2:0 3:0 4:0 5:0 6:0 7:0 8:0 
-0.0648373217912771 1:3975 2:0 3:0 4:0 5:0 6:0 7:0 8:0 
-0.1203593694123946 1:30200 2:0 3:104 4:3.8655427e+10 5:0 6:0 7:0 8:0 
-0.1218622389156686 1:3448 2:0 3:32 4:5.1540394e+10 5:8 6:8 7:0 8:0 
-5 1:2 2:0 3:0 4:0 5:2 6:0 7:0 8:0 
-1.517614045961 1:0 2:0 3:0 4:0 5:5 6:0 7:0 8:0 
-0.1218622389156686 1:40 2:0 3:21 4:0 5:48 6:48 7:0 8:0 
-0.1224719915322163 1:21736 2:0 3:567 4:3.006523e+10 5:5752 6:5752 7:0 8:0 
-0.1226449681534936 1:0 2:0 3:85 4:4.7245361e+10 5:1360 6:1360 7:0 8:0 
-0.123207300355162 1:411 2:0 3:0 4:0 5:183 6:0 7:0 8:0 
-0.123207300355162 1:56 2:0 3:0 4:0 5:19 6:0 7:0 8:0 
-0.1236558018299981 1:0 2:0 3:1 4:1.03e+11 5:0 6:0 7:0 8:0 
-0.1242377514297567 1:2765 2:0 3:233 4:4.2951311e+10 5:33 6:33 7:0 8:0 
-0.1242490631634867 1:0 2:0 3:77 4:0 5:1 6:0 7:0 8:12 
-0.1242490631634867 1:480 2:0 3:0 4:0 5:0 6:0 7:0 8:0 
-0.1243990079056437 1:0 2:0 3:34 4:4.7245361e+10 5:96 6:96 7:0 8:0 
-0.1245021816961779 1:3144 2:0 3:620 4:0 5:7120 6:7120 7:0 8:0 
-0.124513128721695 1:10048 2:0 3:0 4:0 5:200 6:0 7:0 8:0 
-0.124513128721695 1:47936 2:0 3:288 4:4.2950328e+10 5:256 6:256 7:0 8:0 
-0.124525993847741 1:3972 2:0 3:0 4:4.2950328e+09 5:3 6:3 7:0 8:0 
-0.124525993847741 1:50768 2:0 3:20 4:0 5:72 6:72 7:0 8:0 
-0.1245441263966555 1:37816 2:0 3:0 4:0 5:0 6:0 7:0 8:0 
-0.07156641792437246 1:35976 2:0 3:350 4:7.3015558e+10 5:8 6:8 7:0 8:0 
-0.06868638824299589 1:1269 2:0 3:0 4:0 5:10 6:0 7:0 8:0 
-0.06663392850205285 1:2782 2:0 3:0 4:1 5:0 6:0 7:0 8:0 
-5 1:2 2:0 3:0 4:0 5:0 6:0 7:0 8:0 
-0.06312817717143332 1:9296 2:0 3:15 4:2.5770197e+10 5:272 6:272 7:0 8:0 
-0.06305435303124035 1:3400 2:0 3:49 4:0 5:2 6:2 7:0 8:0 
-0.06276423284799931 1:0 2:0 3:436 4:0 5:304 6:304 7:0 8:0 
-0.06258041344902632 1:4336 2:0 3:206 4:3.006523e+10 5:8 6:8 7:0 8:0 
-0.06249828101016663 1:0 2:0 3:7 4:9.4490722e+10 5:64 6:64 7:0 8:0 
-0.06249357746914092 1:238 2:0 3:1049 4:9.8785755e+10 5:19 6:19 7:0 8:0 
-0.06249588597636546 1:65224 2:0 3:0 4:0 5:16 6:0 7:0 8:0 
-0.06249615010817561 1:3963 2:0 3:6 4:1 5:14 6:14 7:0 8:0 
-0.06249615311177337 1:4466 2:0 3:335 4:8.5900657e+09 5:90 6:90 7:0 8:0 
-0.06249858074448272 1:0 2:0 3:0 4:68 5:0 6:0 7:0 8:0 
-0.06249858175983175 1:0 2:0 3:0 4:3.22e+11 5:0 6:0 7:0 8:0 
-0.06249858169388567 1:3084 2:0 3:6 4:0 5:0 6:0 7:0 8:0 
-0.06249970061338211 1:35712 2:0 3:264 4:6.013046e+10 5:48 6:48 7:0 8:0 
-0.06249999924510363 1:8992 2:0 3:71 4:4.2950328e+10 5:88 6:88 7:0 8:0 
-5 1:1 2:0 3:0 4:0 5:8 6:0 7:0 8:0 
-0.05809435060783863 1:0 2:0 3:0 4:5 5:0 6:0 7:0 8:0 
-0.06249999924504296 1:11552 2:0 3:70 4:5.1540394e+10 5:8 6:8 7:0 8:0 
-0.0625 1:0 2:0 3:193 4:7 5:0 6:0 7:0 8:0 
-0.0625 1:5112 2:0 3:21 4:3.8655295e+10 5:80 6:80 7:0 8:0 
-0.0625 1:0 2:0 3:0 4:0 5:168 6:0 7:0 8:0 
-0.0625 1:70 2:0 3:6 4:0 5:0 6:0 7:0 8:0 
-0.0625 1:1120 2:0 3:26 4:6.4425492e+10 5:0 6:0 7:0 8:0 
-0.06250000000001593 1:308 2:0 3:0 4:1.7180262e+10 5:0 6:0 7:0 8:0 
-0.06250000148947948 1:800 2:0 3:0 4:8.1605624e+10 5:8 6:8 7:0 8:0 
-0.06250000148947948 1:46152 2:0 3:18 4:5.1540394e+10 5:0 6:0 7:0 8:0 
-0.06251071637693095 1:0 2:0 3:0 4:65537 5:0 6:0 7:0 8:0 
-0.0625117566817866 1:0 2:0 3:12 4:0 5:96 6:96 7:0 8:0 
-0.0625117566817866 1:26976 2:0 3:22 4:4.7245361e+10 5:0 6:0 7:0 8:0 
-0.06275644492285487 1:992 2:0 3:0 4:0 5:0 6:0 7:0 8:0 
-0.06277518172576707 1:1886 2:0 3:0 4:0 5:108 6:0 7:0 8:0 
-0.06285105662055213 1:7312 2:0 3:852 4:7.3015558e+10 5:0 6:0 7:0 8:0 
-0.06311630994681361 1:316 2:0 3:0 4:0 5:3 6:0 7:0 8:0 
-0.06315003318788998 1:0 2:0 3:24 4:0 5:112 6:112 7:0 8:0 
-0.06315003318788998 1:19 2:0 3:0 4:0 5:32 6:0 7:0 8:0 
-0.06320413047845791 1:2528 2:0 3:137 4:5.1540394e+10 5:104 6:104 7:0 8:0 
-0.0632041330668805 1:3160 2:0 3:0 4:6.8720525e+10 5:16 6:16 7:0 8:0 
-0.06323190822097918 1:14240 2:0 3:42 4:3.4360263e+10 5:72 6:72 7:0 8:0 
-0.06414011415001797 1:88 2:0 3:0 4:0 5:867 6:0 7:0 8:0 
-0.0650208444990229 1:241 2:0 3:0 4:0 5:255 6:0 7:0 8:0 
-0.06577066424258476 1:388 2:0 3:0 4:0 5:1464 6:0 7:0 8:0 
-0.06704297850260538 1:0 2:0 3:0 4:9.8785755e+10 5:0 6:0 7:0 8:0 
-0.06704297850297053 1:688 2:0 3:0 4:2.5770197e+10 5:0 6:0 7:0 8:0 
-0.06759843550427258 1:15328 2:0 3:77 4:7.7310591e+10 5:96 6:96 7:0 8:0 
-0.07181000980873431 1:44680 2:0 3:99 4:8.1605624e+10 5:192 6:192 7:0 8:0 
-0.07766893499995944 1:175 2:0 3:0 4:0 5:21 6:0 7:0 8:0 
-0.07273919998529776 1:7352 2:0 3:12 4:3.006523e+10 5:8 6:8 7:0 8:0 
-0.073635396426382 1:1328 2:0 3:56 4:8.1605624e+10 5:0 6:0 7:0 8:0 
-0.07397046600012508 1:1808 2:0 3:7 4:4.7245361e+10 5:8 6:8 7:0 8:0 
-0.07400095178650218 1:0 2:0 3:0 4:14 5:0 6:0 7:0 8:0 
-0.07400340592121468 1:0 2:0 3:1 4:3.8655295e+10 5:65534 6:65534 7:0 8:0 
-0.07456077561658409 1:3664 2:0 3:181 4:3.006523e+10 5:0 6:0 7:0 8:0 
-0.07564454924717146 1:1928 2:0 3:41 4:0 5:0 6:0 7:0 8:0 
-1.748098292222471 1:2 2:0 3:0 4:0 5:7 6:0 7:0 8:0 
-0.07571839109447137 1:3920 2:0 3:0 4:0 5:472 6:0 7:0 8:0 
-0.07627395327266634 1:64480 2:0 3:47 4:4.2950328e+10 5:256 6:256 7:0 8:0 
-0.07667933195152793 1:1064 2:0 3:0 4:0 5:2008 6:0 7:0 8:0 
-0.07831874026599733 1:1120 2:0 3:219 4:8.5900657e+10 5:1168 6:1168 7:0 8:0 
-0.07854459016731236 1:520 2:0 3:87 4:7.3015558e+10 5:16 6:16 7:0 8:0 
-0.07854459016731236 1:17248 2:0 3:14 4:9.019569e+10 5:56 6:56 7:0 8:0 
-0.07886213893582389 1:2237 2:0 3:30 4:4.2950984e+09 5:1738 6:1738 7:0 8:0 
-0.07946520745867292 1:3888 2:0 3:1368 4:3.006523e+10 5:224 6:224 7:0 8:0 
-0.492227195811936 1:0 2:0 3:0 4:1 5:0 6:0 7:0 8:0 
-0.07954656126664789 1:8 2:0 3:11 4:0 5:32 6:32 7:0 8:0 
-0.07990318412565539 1:759 2:0 3:0 4:0 5:26 6:0 7:0 8:0 
-0.08140795927016414 1:0 2:0 3:13 4:0 5:64 6:64 7:0 8:0 
-0.08140795927016414 1:0 2:0 3:6 4:2.1475164e+10 5:248 6:248 7:0 8:0 
-0.0940737779995377 1:0 2:0 3:36 4:6.013046e+10 5:0 6:0 7:0 8:0 
-0.08300330367236647 1:1768 2:0 3:49 4:3.8655295e+10 5:16 6:16 7:0 8:0 
-0.08300330367236647 1:58320 2:0 3:0 4:0 5:104 6:0 7:0 8:0 
-0.08355751521091748 1:14136 2:0 3:42 4:4.2950328e+10 5:24 6:24 7:0 8:0 
-0.0845172609702996 1:0 2:0 3:43 4:1.12e+11 5:0 6:0 7:0 8:0 
-0.08504762641801317 1:0 2:0 3:54 4:9.019569e+10 5:256 6:256 7:0 8:0 
-0.08510777132151676 1:3006 2:0 3:0 4:0 5:0 6:0 7:0 8:0 
-0.08785299749439535 1:2031 2:0 3:0 4:0 5:0 6:0 7:0 8:0 
-0.05888608843494464 1:0 2:0 3:4 4:0 5:0 6:0 7:0 8:0 
-0.08850099995027499 1:0 2:0 3:16 4:5.5835427e+10 5:0 6:0 7:0 8:0 
-0.06247143503110514 1:2694 2:0 3:0 4:0 5:2 6:2 7:0 8:0 
-0.08892510169419865 1:3602 2:0 3:0 4:0 5:0 6:0 7:0 8:0 
-0.0889469847985162 1:10480 2:0 3:987 4:196611 5:14496 6:14496 7:0 8:0 
-0.08928434786090328 1:1915 2:0 3:0 4:0 5:0 6:0 7:0 8:0 
-0.08988631853529599 1:41968 2:0 3:225 4:3.8655296e+10 5:40 6:40 7:0 8:0 
-0.09239075176325084 1:0 2:0 3:1 4:1.7180131e+10 5:408 6:408 7:0 8:0 
-0.09248473451811989 1:136 2:0 3:240 4:3.8655295e+10 5:0 6:0 7:0 8:0 
-3.306418739925792 1:32 2:0 3:0 4:0 5:1 6:0 7:0 8:0 
-0.09248473451811989 1:6872 2:0 3:95 4:4.7245361e+10 5:0 6:0 7:0 8:0 
-0.09326281883815873 1:34 2:0 3:5 4:1.55e+11 5:0 6:0 7:0 8:0 
-0.09353947119294415 1:1557 2:0 3:0 4:1.2885098e+10 5:0 6:0 7:0 8:0 
-0.0945287092932211 1:1088 2:0 3:384 4:0 5:63640 6:63640 7:0 8:0 
-0.09510870185050019 1:64720 2:0 3:50 4:3.006523e+10 5:16 6:16 7:0 8:0 
-0.095516876381253 1:45120 2:0 3:1 4:2.32e+11 5:0 6:0 7:0 8:0 
-0.09563860526993934 1:81 2:0 3:0 4:0 5:0 6:0 7:0 8:0 
-0.09708718078715539 1:0 2:0 3:37 4:6.4425496e+10 5:0 6:0 7:0 8:0 
-0.09796476895123957 1:5960 2:0 3:23 4:1.12e+11 5:448 6:448 7:0 8:0 
-0.1038990855222499 1:0 2:0 3:91 4:3 5:32 6:32 7:0 8:0 
-0.1054825442118184 1:9752 2:0 3:378 4:8.1605624e+10 5:0 6:0 7:0 8:0 
-0.1068616190690557 1:0 2:0 3:4 4:2.1475164e+10 5:0 6:0 7:0 8:0 
-0.1070295366116325 1:11536 2:0 3:15 4:3.006523e+10 5:104 6:104 7:0 8:0 
-0.108916347180222 1:26584 2:0 3:0 4:0 5:8 6:0 7:0 8:0 
-0.1099164254842026 1:0 2:0 3:54 4:1.7180131e+10 5:8 6:8 7:0 8:0 
-0.1102024557768906 1:819 2:0 3:0 4:3 5:1 6:1 7:0 8:0 
-0.1102500063901071 1:3258 2:0 3:0 4:4.2950328e+09 5:0 6:0 7:0 8:0 
-0.113189648552073 1:5416 2:0 3:13 4:6.013046e+10 5:48 6:48 7:0 8:0 
-0.1137721909572589 1:0 2:0 3:0 4:7.7310657e+10 5:0 6:0 7:0 8:0 
-0.1145177962898807 1:0 2:983041 3:0 4:0 5:0 6:0 7:0 8:0 
-0.1145261480368568 1:64736 2:0 3:93 4:6.013046e+10 5:0 6:0 7:0 8:0 
-0.1147375602542648 1:150 2:0 3:0 4:0 5:17 6:0 7:0 8:0 
-0.116541544906795 1:1111 2:0 3:0 4:3.4360263e+10 5:0 6:0 7:0 8:0 
-0.1180531607211108 1:0 2:0 3:35 4:8.5900657e+09 5:448 6:448 7:0 8:0 
-0.1198696823158337 1:528 2:0 3:0 4:0 5:720 6:0 7:0 8:0 
-0.1198696855973289 1:0 2:0 3:78 4:3.8655296e+10 5:80 6:80 7:0 8:0 
-0.1203593694123946 1:2208 2:0 3:20 4:8.5900657e+10 5:0 6:0 7:0 8:0 
-0.1218622389156686 1:11760 2:0 3:57 4:1.2885098e+10 5:96 6:96 7:0 8:0 
-0.123207300355162 1:4095 2:0 3:0 4:3.8655295e+10 5:0 6:0 7:0 8:0 
-0.05603968095081102 1:0 2:0 3:0 4:0 5:2 6:2 7:0 8:0 
-0.1242377514297568 1:22416 2:0 3:536 4:0 5:1456 6:1456 7:0 8:0 
-0.1242490631634867 1:0 2:0 3:75 4:1.2885098e+10 5:4048 6:4048 7:0 8:0 
-0.0624999992464807 1:35 2:0 3:0 4:0 5:39 6:0 7:0 8:0 
-0.1245021816961779 1:2248 2:0 3:20 4:6.4425493e+10 5:0 6:0 7:0 8:0 
-0.124513128721695 1:856 2:0 3:23 4:4.7245361e+10 5:0 6:0 7:0 8:0 
-0.124525993847741 1:11176 2:0 3:98 4:6.4425492e+10 5:96 6:96 7:0 8:0 
-0.06755632187269361 1:8 2:0 3:16 4:0 5:4688 6:4688 7:0 8:0 
-0.0666035458580489 1:39424 2:0 3:31 4:4.7245361e+10 5:40 6:40 7:0 8:0 
-0.06285799472768283 1:4074 2:0 3:0 4:3 5:0 6:0 7:0 8:0 
-0.06252705496751382 1:2494 2:0 3:0 4:4.2950328e+09 5:16 6:16 7:0 8:0 
-0.0624924197199716 1:0 2:0 3:0 4:4.2950328e+10 5:0 6:0 7:0 8:0 
-0.06249615128485786 1:11968 2:0 3:102 4:6.013046e+10 5:24 6:24 7:0 8:0 
-0.06249858160231048 1:12368 2:0 3:22 4:8 5:0 6:0 7:0 8:0 
-5 1:14 2:0 3:0 4:0 5:1 6:0 7:0 8:0 
-0.0624997005546381 1:17328 2:0 3:116 4:3.4360263e+10 5:160 6:160 7:0 8:0 
-0.06249999924495808 1:64712 2:0 3:54 4:1 5:16 6:16 7:0 8:0 
-0.0625 1:1437 2:1638425 3:0 4:0 5:0 6:0 7:0 8:0 
-0.0625 1:1624 2:0 3:108 4:6.013046e+10 5:104 6:104 7:0 8:0 
-0.0625 1:386 2:0 3:0 4:0 5:18 6:18 7:0 8:0 
-0.06250000000001593 1:2384 2:0 3:17 4:1.55e+11 5:0 6:0 7:0 8:0 
-0.06250000148947948 1:440 2:0 3:41 4:3.4360265e+10 5:0 6:0 7:0 8:0 
-0.06251071637693095 1:3960 2:0 3:1760 4:4.2950328e+10 5:744 6:744 7:0 8:0 
-0.0625117566817866 1:0 2:0 3:6 4:6.4425494e+10 5:8 6:8 7:0 8:0 
-0.06277518172576707 1:0 2:0 3:6 4:8.5900657e+09 5:35 6:35 7:0 8:0 
-0.06285105662055213 1:0 2:0 3:10 4:3.8655361e+10 5:0 6:0 7:0 8:0 
-0.06315003318788998 1:0 2:0 3:0 4:4.2950328e+09 5:103 6:103 7:0 8:0 
-0.0632041330668805 1:1720 2:0 3:0 4:0 5:448 6:448 7:0 8:0 
-0.06414011415001797 1:33 2:0 3:0 4:7.3015624e+10 5:0 6:0 7:0 8:0 
-0.0650208444990229 1:8288 2:0 3:61 4:7.7310591e+10 5:1720 6:1720 7:0 8:0 
-0.06704297850297053 1:948 2:0 3:0 4:0 5:14 6:0 7:0 8:0 
-0.06759843550427258 1:1072 2:0 3:50 4:5.1540394e+10 5:0 6:0 7:0 8:0 
-0.07273919998529776 1:1000 2:0 3:19 4:5.1540394e+10 5:704 6:704 7:0 8:0 
-0.07397046600012508 1:1080 2:0 3:0 4:6.013046e+10 5:448 6:448 7:0 8:0 
-2.341247568287947 1:0 2:0 3:0 4:0 5:8 6:0 7:0 8:0 
-0.07400340592121468 1:1664 2:0 3:13 4:4.2950328e+10 5:40 6:40 7:0 8:0 
-0.07571839109447137 1:0 2:0 3:13 4:1 5:0 6:0 7:0 8:0 
-0.07627395327266634 1:0 2:0 3:8 4:2.5770197e+10 5:0 6:0 7:0 8:0 
-0.07831874026599733 1:768 2:0 3:1 4:4.2950328e+10 5:0 6:0 7:0 8:0 
-0.09708718078715539 1:0 2:0 3:0 4:4.2950328e+09 5:0 6:0 7:0 8:0 
-1.835398315542367 1:14 2:0 3:0 4:0 5:8 6:0 7:0 8:0 
-0.07854459016731236 1:7576 2:0 3:1 4:1.7180131e+10 5:0 6:0 7:0 8:0 
-0.07886213893582389 1:2669 2:0 3:1 4:1 5:0 6:0 7:0 8:0 
-0.07954656126664789 1:760 2:0 3:5 4:7.7310591e+10 5:0 6:0 7:0 8:0 
-0.08140795927016414 1:5680 2:0 3:669 4:4.7245361e+10 5:32 6:32 7:0 8:0 
-0.08300330367236647 1:12496 2:0 3:71 4:8.1605624e+10 5:8 6:8 7:0 8:0 
-0.08355751521091748 1:1520 2:0 3:39 4:0 5:1888 6:1888 7:0 8:0 
-5 1:13 2:0 3:0 4:0 5:0 6:0 7:0 8:0 
-0.0845172609702996 1:1976 2:0 3:0 4:0 5:592 6:0 7:0 8:0 
-0.08510777132151676 1:2392 2:0 3:11 4:3.8655295e+10 5:0 6:0 7:0 8:0 
-0.08785299749439535 1:49008 2:0 3:1691 4:8.1605624e+10 5:16 6:16 7:0 8:0 
-0.08850099995027499 1:4584 2:0 3:339 4:65537 5:368 6:368 7:0 8:0 
-0.09239075176325084 1:456 2:0 3:41 4:6.8720525e+10 5:24 6:24 7:0 8:0 
-0.09248473451811989 1:12848 2:0 3:11 4:6.4425493e+10 5:0 6:0 7:0 8:0 
-0.09510870185050019 1:1496 2:0 3:20 4:7.7310591e+10 5:32 6:32 7:0 8:0 
-0.1099164254842026 1:0 2:0 3:6 4:69 5:0 6:0 7:0 8:0 
-0.1102500063901071 1:976 2:0 3:7 4:4.7245361e+10 5:8 6:8 7:0 8:0 
-0.113189648552073 1:0 2:0 3:1 4:3.8655296e+10 5:944 6:944 7:0 8:0 
-0.351286458398558 1:10 2:0 3:0 4:0 5:32 6:0 7:0 8:0 
-0.1137721909572589 1:0 2:0 3:7 4:5.1540394e+10 5:0 6:0 7:0 8:0 
-0.1145177962898807 1:223 2:0 3:0 4:0 5:0 6:0 7:0 8:0 
-0.1198696855973289 1:36952 2:0 3:79 4:4.7245361e+10 5:0 6:0 7:0 8:0 
-0.1203593694123946 1:1360 2:0 3:0 4:5.5835427e+10 5:0 6:0 7:0 8:0 
-0.1218622389156686 1:0 2:0 3:0 4:6.4425492e+10 5:0 6:0 7:0 8:0 
-0.7535284040526511 1:0 2:0 3:0 4:0 5:2 6:0 7:0 8:0 
-5 1:25 2:0 3:0 4:0 5:0 6:0 7:0 8:0 
-0.123207300355162 1:1008 2:0 3:0 4:0 5:0 6:0 7:0 8:0 
-0.1242490631634867 1:0 2:0 3:6 4:4.7245361e+10 5:40 6:40 7:0 8:0 
-0.5000957530127972 1:0 2:0 3:1 4:0 5:0 6:0 7:0 8:0 
-0.124525993847741 1:0 2:0 3:52 4:1.7180131e+10 5:488 6:488 7:0 8:0 
-0.06285497705417131 1:13 2:0 3:0 4:9.0195689e+10 5:0 6:0 7:0 8:0 
-0.06246648678272038 1:2697 2:0 3:0 4:0 5:0 6:0 7:0 8:0 
-0.06249615031861916 1:4216 2:0 3:606 4:2.5770197e+10 5:8 6:8 7:0 8:0 
-0.0625 1:0 2:0 3:6 4:6.013046e+10 5:0 6:0 7:0 8:0 
-0.08140795927016414 1:376 2:0 3:44 4:3.4360263e+10 5:40 6:40 7:0 8:0 
-0.0625117566817866 1:1256 2:0 3:0 4:2.5770197e+10 5:7 6:7 7:0 8:0 
-0.06315003318788998 1:4232 2:0 3:525 4:3.4360263e+10 5:0 6:0 7:0 8:0 
-0.08300330367236647 1:376 2:0 3:0 4:5.5835427e+10 5:208 6:208 7:0 8:0 
-0.07854459016731236 1:29704 2:0 3:13 4:4.7245361e+10 5:0 6:0 7:0 8:0 
-0.06250000148947948 1:0 2:0 3:0 4:3.006523e+10 5:0 6:0 7:0 8:0 
-0.09248473451811989 1:3744 2:0 3:543 4:3.006523e+10 5:344 6:344 7:0 8:0 
